4303 100
， -1.607923 -0.046635 0.447349 1.053498 0.632073 0.389156 0.634943 -0.701945 0.690341 -0.089310 0.095864 -0.599867 0.411356 -0.821264 0.778482 0.801831 -0.461708 0.405904 -0.090505 -0.315812 -0.028389 -0.081218 -0.712170 0.232720 0.198960 0.063828 0.852660 0.082360 0.863565 -0.149541 0.381397 0.329813 -0.978478 -1.236876 -1.222106 0.052543 -2.209458 -0.393473 -0.278765 1.005931 0.874577 1.388674 -0.347850 -0.340538 -0.501794 0.339524 -0.441050 0.020806 1.373125 0.670093 0.032791 0.855232 -0.254655 -0.344818 -0.920634 -0.048057 0.526690 0.148292 -0.133994 0.592338 -0.568568 0.626643 -0.516907 1.431724 0.226613 0.676779 -0.200269 1.130239 -0.226527 0.156455 -1.215649 0.633537 0.497205 2.625102 0.406015 0.259349 -0.215207 -0.034581 0.440202 -0.292166 -0.341823 0.908757 0.004821 0.820117 0.397499 -0.498100 0.248439 -0.433332 0.340514 0.108480 -0.438152 -0.219909 0.721179 -0.352744 0.185015 1.042698 -0.296604 0.468846 -0.239579 -0.010180
的 0.015901 -0.437278 0.558764 1.488414 1.013177 -0.861123 -0.570467 0.251533 -0.469721 0.163562 0.941732 -0.560447 0.214290 0.053900 0.659695 -0.270976 0.584582 -0.653042 -1.117907 -0.045989 0.405065 -0.136265 0.028749 -0.655404 -0.516134 0.303957 -0.312809 -0.627330 0.803002 0.451817 0.121436 0.359878 -1.183517 -0.199624 0.222307 0.390591 -0.767114 0.480618 -0.505877 0.246465 0.491200 1.048543 0.071366 0.967286 0.294866 0.842246 0.535669 0.076177 0.049014 -0.114479 0.396262 0.362498 0.352423 -0.633500 -1.100120 0.541285 -0.357386 -0.325528 -0.578008 1.158656 -0.092892 0.163877 -0.559022 -0.060214 0.234169 0.871692 -0.009894 -0.978677 -0.005678 -0.247300 -0.394735 0.322368 -0.039208 0.013050 -1.096513 -0.139665 -0.110412 0.244551 0.407018 1.480573 -0.286444 0.894633 -0.778774 0.708718 0.082649 -0.383018 0.960350 0.694054 0.380996 -0.277384 0.570587 0.308761 0.990362 -0.104452 -0.986700 0.405369 -0.161842 -0.602838 0.163701 0.943402
<NUM> -0.063947 1.533379 -2.147822 -1.356565 -1.667555 0.777965 0.858421 -0.875702 0.721128 2.200218 0.531384 -1.057959 -1.558161 -0.012376 1.011535 2.156623 0.812075 1.792503 0.929201 0.622741 -0.866435 1.487773 1.152567 -1.108659 1.262125 3.023194 -0.746388 -0.956117 -0.064497 0.795678 -0.724918 -0.730478 -1.403016 0.414647 0.387555 -0.606035 -0.263389 -1.027632 -2.077390 0.089102 0.757762 1.564537 0.614859 -1.586903 -1.262425 -1.158413 0.993653 -0.958156 -1.172025 -1.044313 -0.457801 0.471810 1.468303 0.717490 0.598265 -0.942191 0.538463 0.094244 1.390213 1.952443 -0.916856 0.383436 -1.700581 0.338485 0.855370 -1.205259 2.045883 -1.151938 0.046009 -0.487389 0.033398 0.168477 -1.512404 -0.503287 0.846729 -1.159245 0.956338 -1.719856 -1.591766 -0.731846 -0.053124 0.506625 -0.110078 0.038834 1.428729 1.099932 -1.369769 -0.178953 0.806825 1.025658 -1.012619 0.091240 -2.205097 -0.433560 -0.220320 0.265696 -1.282146 -1.741886 1.863863 2.133334
。 -1.852825 0.398762 -0.811706 0.820433 0.306897 -0.556379 0.221561 0.247360 -0.206746 -0.132720 -0.106961 -0.422085 0.065744 -0.781506 0.501297 -0.949645 -0.684547 -0.979878 -0.478832 0.436233 -0.112569 -0.559042 -0.662888 0.795544 -0.027963 -0.149685 1.387420 0.305298 -0.155911 -0.433213 0.604977 0.150829 -1.586347 -0.447167 -1.404772 0.028887 -1.740474 0.395487 -0.654356 0.448580 0.323268 0.880586 -0.759947 -0.215781 1.488917 -0.334778 -1.463108 0.006279 0.223422 0.224077 0.834162 0.139585 0.762338 -1.003066 -0.098421 -0.523269 0.705906 0.891036 0.323786 -0.154724 0.064247 0.317334 -0.623048 1.104708 0.338477 0.095153 0.811756 -0.113524 1.032889 0.548386 -0.781845 0.568866 -0.029491 1.768875 -1.039421 0.711129 0.075948 -0.724800 0.959335 1.606835 -0.722655 0.395739 -1.026636 1.380219 -0.098049 -1.926962 0.027681 0.337908 -0.909365 0.233533 -0.134468 0.589438 1.339318 -0.900896 0.456738 0.086333 -0.884724 0.925190 -0.106734 1.410897
国 -1.273657 -1.248145 0.295129 -0.183701 2.058185 0.439753 0.520116 -1.265702 0.536953 0.252782 -0.734301 -0.089474 -0.331747 -1.010845 0.401832 1.268375 -0.594337 -0.474719 -0.938559 0.894903 0.574144 -0.398854 -1.800610 -0.056896 0.282870 1.058526 -0.167831 0.009388 -1.003967 0.997173 -1.152658 -0.736331 -2.323564 -1.209244 1.155313 -1.292724 0.933651 -0.275943 -1.324701 -0.395606 2.268667 2.833100 0.800299 -0.437527 -0.584317 0.388973 -0.384437 -1.986501 1.672097 -2.960526 1.012283 -1.176580 0.745572 0.946847 1.494877 0.320217 -0.955913 -1.505004 -1.116624 0.843977 1.735653 0.977600 -0.488104 -1.699485 -0.439030 -1.153672 -0.508082 2.476435 -0.488418 -1.678045 2.301410 -1.287039 0.004011 -0.285434 -1.428471 -0.594263 0.300037 1.412154 -0.594477 -0.196638 1.927437 1.944075 2.821488 -0.546014 1.466447 1.768149 0.412028 0.313544 0.278414 -2.541877 -0.418477 -2.256830 0.240475 -1.004442 0.266527 -0.353624 1.044203 -0.598278 1.475481 0.110986
一 0.274520 1.578781 -0.553518 0.132067 0.366612 0.786487 -0.081779 -0.297025 -0.674914 0.524679 -0.392918 1.178113 -0.691319 -0.990087 0.556438 0.826615 1.685901 -1.237098 -1.076341 -1.053917 -0.266467 0.002700 -0.165946 -1.344907 0.865169 -1.182319 0.296209 -0.461353 1.713870 1.489349 -0.031638 0.726473 -1.129112 0.842239 -1.515536 -0.079683 -1.019080 -0.123637 -0.189523 -1.709228 -0.775242 1.801126 -0.671764 -1.014914 -1.807953 1.765438 -1.153541 -0.972749 1.079358 1.548486 -1.364894 -1.120431 -1.960409 0.625072 0.190672 0.998101 1.054409 -1.129386 0.600219 -1.865368 0.355722 1.667362 -0.663889 0.915725 1.394756 -0.565275 -0.647126 -0.758960 -0.218460 -0.654022 -1.232641 0.539271 1.081093 0.155348 -0.415538 -0.765333 0.344231 -0.632796 1.008826 0.845383 0.053347 0.401968 -0.605709 0.228099 0.605900 0.497652 1.188889 0.248349 -0.182821 0.259284 -1.212626 0.984664 1.087903 -1.259222 0.478376 0.884525 -0.927193 -2.120338 1.738274 0.112746
、 -0.003129 -1.934254 -0.175358 0.777077 1.276267 -1.552663 1.098769 0.844341 -0.403255 0.147109 -0.074710 -0.967456 0.394907 0.886638 -0.123778 -1.062890 -0.593935 1.081436 -1.584746 0.740211 0.793237 -0.170544 -1.873971 -0.387873 0.266252 -0.455252 0.194011 0.120598 -0.610862 0.643256 0.896202 -2.001322 -0.811650 0.484277 0.390799 -0.805058 0.426825 1.632926 -0.042549 1.520987 0.081961 -1.554660 -0.075531 0.178906 1.602065 -0.112104 -0.020498 -0.001248 -1.082974 -0.603183 0.868860 0.251331 -0.258925 -0.801987 -0.010493 0.647961 0.670000 -0.206609 0.729667 0.376231 -0.908705 -0.128230 -1.205454 -0.085682 -0.759384 0.972936 1.332899 -0.890160 -0.924928 -0.019343 0.372528 -0.706162 1.420111 -0.269955 -1.249847 0.945790 -0.039708 0.158138 0.694788 1.506663 -0.698311 1.176738 -0.286378 0.586548 0.365089 -1.604563 0.036820 0.575906 -1.934874 -0.207605 0.288665 -1.495897 -0.420302 0.452381 -0.555757 0.875243 -0.236968 0.913429 0.908366 0.936380
在 0.057261 0.362227 -0.325035 1.203537 0.360588 -1.260500 0.138064 0.224388 -0.540023 -0.279590 -0.231567 -0.766611 2.026029 -0.544024 0.951693 0.427852 -0.005517 -0.252343 0.237521 -0.536424 0.400185 -0.340096 0.157577 -0.830596 1.243570 1.023976 -1.577344 -0.648863 0.349587 -0.193615 0.374387 0.460553 -0.059334 0.623133 -0.596432 0.022395 0.427522 -0.343010 0.434830 0.138089 0.525337 1.964053 -0.071335 -0.084159 -0.264858 0.637286 0.326856 1.004179 1.596474 -0.409384 -1.349256 -0.232219 0.978049 0.271176 -0.237771 -0.550471 0.377392 -0.811567 -0.379181 1.095624 0.305786 0.374761 -0.847731 -1.089234 0.855347 0.064380 0.768842 -0.769500 -0.978934 0.335423 0.394901 -0.861437 -0.891871 0.559168 0.302741 -0.299623 0.906946 0.889225 -0.160338 0.372554 -0.360373 0.656954 0.911406 -0.484043 0.780735 0.033722 0.348816 -1.513030 0.363532 -0.601337 1.214999 0.198782 -0.368483 -1.449784 0.215713 0.881213 -0.804615 -0.786550 -0.218471 0.199226
中 0.959029 -0.164452 -0.314568 0.825146 0.410918 0.154033 0.325931 0.137007 0.025701 1.004299 -0.316911 1.827203 -1.194011 0.657427 -0.600584 0.098195 0.999209 -0.805592 1.792382 0.431212 -0.391107 -0.596828 0.432053 -1.717810 -0.782221 -0.298880 0.014284 1.424496 0.840448 0.192007 -1.278323 -1.411923 0.327118 0.326413 0.073257 0.316427 -0.742547 -0.489060 -0.065788 2.032193 0.919044 -0.526037 0.859321 -1.039142 -0.635180 -0.561829 -2.617102 0.441987 0.050336 -1.031569 -1.351364 1.633299 0.593783 -0.470314 -1.520937 -0.532577 0.432332 -1.517394 -0.177354 -0.203560 0.039681 0.255786 0.055862 -1.738777 0.858102 0.624018 0.536053 -1.146014 0.330015 -1.205729 -0.156999 -1.476211 -0.364324 1.661919 0.919504 0.775188 1.048633 -0.970915 0.876986 0.154388 0.881346 1.609219 -0.821635 -0.033074 0.616765 1.361844 -0.490960 0.750858 0.615906 0.535057 -1.323164 -0.317533 1.060805 0.065077 -1.193770 -0.916012 -0.575528 0.354074 0.843057 0.637250
了 -0.963340 -0.024485 0.445401 0.934226 0.222990 -0.613483 0.964765 0.238078 0.479154 -2.363564 -0.494273 0.451225 0.417647 -0.081310 1.826925 -0.101117 0.153221 -0.569662 -0.757007 -0.736259 0.242505 -0.012211 1.861975 -0.946040 -0.452726 0.871166 2.183555 0.310452 0.723734 0.844675 -0.883937 -0.837747 -0.574630 0.462214 0.110075 -0.038002 -0.617558 -0.550457 0.968231 -0.249440 0.408307 0.651571 0.638012 0.944850 -0.535716 -0.562350 -0.966719 0.593789 1.009896 0.748190 0.159025 0.165790 0.230720 -0.047458 -1.505019 0.156517 -0.602455 0.702326 1.859502 -0.095708 0.913986 0.686042 -0.000037 1.385450 1.167224 0.229748 -0.738348 -0.539250 -1.195544 0.268272 0.325837 1.002746 -0.305296 1.118921 0.353985 -0.290401 0.355248 -0.444484 0.986422 0.958592 -0.518707 -0.314817 -0.487415 0.554424 0.057808 0.465649 0.232949 0.129766 0.686243 -0.749766 1.523470 0.350530 0.108659 -0.521778 -0.494890 0.335046 -0.740190 -1.183697 -0.071564 0.489639
是 0.902399 1.740298 0.406446 1.154275 0.490410 0.132511 1.161232 -1.317219 0.165363 -0.036992 -0.611999 0.102997 1.689627 0.018531 -1.029577 1.441108 -0.283497 -1.966495 -0.659361 -1.375646 -0.274397 -0.974328 1.395830 -1.053869 0.638671 0.007468 -0.308709 0.875491 0.089898 -0.457464 -0.131607 1.006195 -0.393935 0.604718 -0.764076 0.059528 -0.216364 -0.196489 0.719034 0.294999 0.022327 0.025846 0.315969 -0.047220 0.264597 1.214002 0.487009 -0.095560 0.646491 0.325739 -1.374214 -0.309004 -0.871212 -0.573335 -0.626081 0.759615 0.903317 -0.142066 0.053363 0.839830 0.714049 0.670528 -0.072901 0.722462 1.134270 -0.676725 -0.787184 1.184535 0.021668 0.920596 -0.904738 -1.127735 -1.132900 0.056392 0.683039 0.377079 -0.812671 0.597572 -0.563977 -0.606896 -0.306407 0.776389 1.694458 -0.443679 1.262505 -0.046042 0.243568 0.950091 1.374596 0.028383 -0.010522 -0.712828 0.975316 0.450304 -0.458542 -0.416248 0.470757 1.237811 -0.881343 0.040384
人 0.586683 1.205304 1.117862 -0.811663 0.520023 1.484086 1.610020 -1.142409 -1.622596 -0.209282 -0.571013 0.767177 0.390108 -0.791297 0.867722 1.321640 0.546022 0.158243 -0.303918 0.158956 0.307087 1.461332 0.849663 -0.805442 0.059758 -2.894345 1.470065 -0.682442 -0.144294 -0.307133 -0.681076 -0.589351 -1.036557 -1.942383 1.524083 0.086640 -0.936614 -0.620169 1.107953 2.328000 0.227950 0.987527 -0.155895 -0.350539 -0.362406 0.035202 -1.193756 0.622477 0.919242 0.341581 -0.122844 0.772701 1.439456 0.318667 1.433873 1.601932 1.569453 0.774259 0.513720 1.426901 0.462035 1.186021 1.882284 -0.557649 -0.417766 -0.903708 -0.665272 -0.647337 -0.627843 -0.743687 0.370382 0.032943 -0.890495 -0.372651 -0.237911 0.462022 0.474948 -1.062319 -1.124643 -0.100991 -0.604481 0.206588 -1.810644 0.728697 0.437785 0.608319 0.387089 -0.073141 0.156388 -0.683701 -0.405980 0.928433 0.452295 0.763781 -1.120217 -0.171116 0.341484 0.354186 -1.040133 -0.236776
和 -0.904048 -1.047803 0.205949 1.696579 2.238002 -0.839559 0.330538 0.338656 -0.582792 0.300196 -0.105327 -0.758844 0.936556 0.035100 0.924386 -0.802253 -0.716632 0.170391 -0.790851 -0.041310 0.050355 -0.461392 -0.793821 -0.029766 0.225689 0.068740 0.061461 -0.004779 -0.085700 0.526120 0.303428 -0.323020 -0.796440 0.152196 0.769843 0.002076 0.183274 0.829437 -0.123251 1.665256 0.807845 0.407976 0.190037 0.421385 1.173695 -0.466775 -0.899621 -0.257116 -0.929251 -0.910266 -0.775719 0.285457 0.318328 -0.601910 0.069169 0.445505 -0.008907 -1.377741 0.325919 0.240017 0.166330 0.357964 -1.966332 0.286693 -0.276530 1.154954 1.907412 -0.862086 0.244041 0.179589 -0.411270 -0.586768 -0.098174 0.125567 -0.729903 1.039458 0.027736 0.173313 0.915417 1.059993 -1.101015 0.545309 0.486746 0.480443 0.276691 -0.492004 1.361088 0.154616 -0.702477 0.105053 -0.313365 -1.202944 0.725681 0.026278 -0.666116 0.093297 -0.070273 0.322141 0.245691 1.202021
有 0.344110 1.238047 0.158437 0.679162 -0.104708 0.433121 1.781329 0.422784 -1.341552 -0.591581 -0.481554 0.262431 0.363207 -0.037541 0.987525 1.596555 -0.548960 -1.275332 0.365309 -1.439066 -2.445019 0.103835 0.895630 0.160030 0.845800 -0.764730 -1.336897 0.535367 0.991118 1.218286 -0.903646 -0.060010 -2.739064 0.420819 0.133204 -0.309897 -0.328029 -1.973317 -0.326482 2.385915 -0.610762 0.163205 -1.194792 -0.658966 0.580226 2.086935 1.588812 -0.935208 0.563322 0.908373 -1.047108 -0.152700 -0.532325 0.566624 0.250812 0.833782 -0.089406 -0.109340 -0.192068 0.976309 0.092555 -1.089428 -1.173226 -1.030325 1.212108 -0.189832 -0.202223 -0.820631 -0.190441 1.324195 -0.238810 -0.091778 -2.191885 -0.051322 -0.749735 1.402161 -0.832164 -1.058815 0.797577 -1.048710 -0.188095 -1.042515 -0.638085 0.429699 1.360066 -0.909532 0.298254 -1.337513 1.995690 0.969277 0.536972 -0.557543 1.242300 -1.755239 0.987641 0.137872 -1.520903 1.389827 0.055330 -0.841675
大 0.056426 -0.459935 -0.449995 0.209880 -0.227678 -1.153271 0.785059 0.460760 -1.084098 -0.756297 -0.298192 1.744905 0.384879 0.435332 -0.314836 -0.320627 0.361334 1.642729 1.513898 -0.406245 -0.660040 -0.231446 -0.147548 -1.562274 -0.474074 1.201078 -0.628425 0.395718 1.072255 0.401458 -2.344530 -0.468380 -0.742272 0.906248 0.237905 -0.225833 0.264386 -0.246355 -0.971780 -0.101825 -0.637312 0.285429 0.315518 0.020395 0.689555 1.077742 -1.185709 -1.395396 2.690044 -1.073654 -0.025265 0.571894 -0.635898 -1.500078 0.841659 1.384945 -0.753757 -0.629688 -0.744362 1.109507 1.148926 -0.669289 -1.292310 0.269817 0.564279 0.046070 1.072428 1.306391 0.511888 -1.670561 -2.008145 -0.315333 -0.227546 1.006675 -1.966500 -0.037662 -0.805939 -0.494395 1.701740 -0.305327 -0.930463 0.766929 0.655285 0.467039 0.691137 0.173063 -0.469776 0.860674 -0.093032 1.205367 0.877640 1.155393 0.445976 0.671781 1.018137 -0.228268 -0.433016 0.362216 0.063386 0.033765
不 -1.848855 1.965460 -0.358070 0.921703 -0.778449 1.642376 -1.193223 -1.670252 0.443153 -0.879308 1.059930 -0.175631 -0.007196 -0.594932 -0.408192 0.567267 0.397348 -1.672576 -0.616440 -1.357943 0.127763 0.082441 -0.003979 -1.079918 0.637927 0.405855 0.195025 1.035503 1.009335 1.637149 1.486267 0.519396 -1.073666 -0.559022 -1.123107 0.899233 -0.745628 -0.875628 1.416174 0.600176 0.072718 0.266471 -0.887096 0.168410 -0.215439 -0.094019 0.231761 -0.319158 0.446773 0.243142 -0.480211 -0.145757 -1.290769 -2.064680 0.412618 0.909854 -0.948871 -0.116720 0.630365 -0.735711 0.015544 -1.860763 0.254305 1.244988 -0.110767 1.461709 -1.367635 0.452970 -0.218768 0.073633 0.424091 -0.916706 0.877169 1.248878 -0.076245 -0.481783 -0.117409 -1.741497 -0.655749 -1.748697 -0.075808 -0.120997 1.213851 -1.825577 0.563988 -1.868113 1.280802 -1.023697 0.000822 -0.169154 -0.335974 1.088398 1.341591 -0.976348 -0.831043 0.147455 0.557472 1.151366 -1.528500 -1.207751
年 -0.444834 0.876499 -1.826096 -1.007627 -1.718393 0.099740 1.257652 0.502114 -0.626365 0.335697 0.482834 2.123159 -0.511102 -0.001224 1.104623 0.029692 -0.717417 1.133103 1.184618 1.252837 0.286773 -1.679299 2.246720 -1.313099 0.496055 1.144714 0.184456 -1.275126 -1.502394 -0.631278 -0.175723 0.411853 -1.597363 0.768878 2.829573 1.110358 -0.134730 -2.404424 -0.175430 1.326778 2.585452 1.354511 0.994245 1.235165 0.571129 -0.298354 -0.235683 0.068338 -1.359854 0.692897 0.925951 -0.897956 0.913237 -0.145939 -0.703108 -0.833427 0.123853 -0.273919 -0.472619 1.447017 1.671404 1.720171 2.153295 0.857215 0.861633 -0.243682 1.077555 1.527843 0.002828 -0.152412 0.700988 0.421658 -1.088504 0.624508 1.138362 0.758167 -1.140155 -2.397307 -1.202969 -2.447428 2.809261 0.207855 1.706643 -2.878594 -0.559085 1.688020 -2.877453 -1.697435 -2.309822 -1.781743 0.482410 0.557301 -1.472610 -0.122057 -2.057708 0.665210 0.296787 -0.994733 0.700884 -1.662819
为 0.311733 -0.380570 1.003334 -0.183579 0.289706 0.421907 -0.542809 -0.567814 0.672366 0.016228 0.589781 -0.276089 0.643361 0.894105 -0.328765 0.882614 -0.404805 -0.722702 -0.273128 -1.308213 1.010902 -2.086506 0.753517 -1.093712 -0.014151 -0.285410 -1.413768 -2.423177 1.986264 0.804493 -0.049531 0.864798 -0.297442 0.008662 -0.271106 0.549916 -0.592166 -1.759903 -0.979296 -0.943331 -0.699853 0.639884 -0.521453 -0.179366 1.254645 -0.521469 -0.656814 0.268766 -0.257151 0.282139 -1.267302 0.124495 1.978262 -0.062265 0.524290 -0.494980 -1.395913 -2.894688 1.209421 1.625326 1.206933 0.159257 -2.466688 0.146433 -0.076641 -0.762329 -0.460963 0.535974 0.090060 -1.079911 -0.669806 -0.155536 -1.870141 1.109286 0.222517 -0.414935 0.001930 0.587700 -1.094474 0.840208 0.251838 -1.207617 -0.772974 -0.605465 -0.880536 0.467896 -1.243137 -0.131026 -0.091798 -0.522508 -0.259951 -0.795760 1.190745 0.327980 -0.725258 -0.122328 0.789867 -0.146277 -1.325112 0.958029
会 -0.710923 1.120526 -0.770367 -0.895555 0.353915 -1.042939 1.459179 -1.032066 -0.904353 -0.973886 -0.771332 0.198631 2.042915 -0.235281 0.545659 -1.893613 0.126309 0.665799 0.554268 -1.055773 -0.477280 -0.215435 -2.826386 0.154528 1.975176 -1.413960 0.234005 -0.508133 0.158300 0.808869 -1.309512 -0.343246 -0.806817 -1.488558 -0.854266 -0.538645 -0.285481 0.018059 -1.848393 0.227433 1.149610 1.508242 1.036139 0.587529 -1.740515 -0.545199 -2.895959 1.786526 -1.273238 -1.340199 -1.776698 -1.777962 -0.236049 2.400175 -2.014973 -0.100050 2.113838 -0.114074 0.257603 2.235169 -0.076543 0.365179 -0.529830 -0.120047 0.167792 -1.450039 -0.912848 0.021866 0.979555 -1.658579 -0.384776 2.028184 -0.501103 0.154192 -0.791745 3.558363 1.406685 -0.054519 -0.367077 -0.008795 0.220469 2.830182 0.223764 0.690212 0.425139 0.235447 1.622254 -0.388643 2.434584 -1.040567 2.000943 -1.245227 0.596878 1.251428 0.876538 -0.440209 3.093418 0.037530 -1.294616 -2.104389
这 1.524469 1.505686 -0.013791 -0.694048 0.158663 0.224754 -1.091280 -1.483566 -0.336415 -0.688749 0.585423 0.710250 0.883683 -0.840090 0.748356 1.393881 0.917708 0.744752 -1.397318 -1.321237 -2.609780 -0.564577 -0.535568 -1.054106 1.245367 0.189768 0.706573 -0.371763 2.056185 1.422853 0.283599 -0.764125 -1.941632 -0.322176 -0.792123 0.299390 -0.942799 0.126452 -0.785549 0.033477 -0.827891 1.374543 -1.765126 -0.740418 -1.993649 0.813834 -0.204563 -1.155459 1.845387 -0.034255 -2.353734 -1.403399 -0.077207 0.296990 0.268001 1.479694 1.508588 0.324973 -1.375827 -2.067658 0.338305 0.563320 2.411241 2.074061 0.415943 -0.548224 -1.946662 -0.431094 -0.117408 1.505918 -0.640820 -0.497637 -0.492241 -0.071721 -1.037746 -0.440524 0.151883 0.350664 1.410294 -0.036228 -0.962092 -0.341608 -0.557145 1.327473 -0.831461 0.302081 1.239802 0.396933 1.217621 -1.296325 -1.665792 -0.486359 2.302033 -1.021514 -0.334254 1.782439 -1.291495 -1.395983 0.741017 -0.831110
” 1.887159 -1.142361 -1.179289 -0.034263 -1.181696 0.783955 1.194638 0.263679 1.171338 0.175624 -0.725407 -1.592000 0.381930 0.532821 -0.116520 -0.852196 -0.894463 -1.366513 -1.609795 0.195601 -0.333790 1.178954 0.646206 -0.591575 1.141289 -0.710285 -0.756891 -1.254830 1.180803 0.489652 -0.526213 0.138271 1.103345 0.325758 -0.611638 1.804476 0.738071 1.227402 0.530738 0.842352 -1.532103 -1.311831 -1.441633 1.795021 -1.342838 0.652734 1.304416 -0.333076 0.660966 -1.612549 0.982889 0.752435 0.522223 -1.478019 -0.506108 1.216119 -0.417320 0.034182 0.656358 -0.104258 0.956442 0.966030 0.884970 0.702801 -0.167469 -0.560166 0.027970 1.201396 -0.123754 0.030571 0.404142 0.273204 1.297688 0.166267 -0.346556 0.627311 0.217753 -0.843041 1.028783 2.277630 -0.545100 -0.262825 1.558636 -0.714572 -0.880952 1.336243 0.087108 1.278047 0.128279 2.328928 0.147476 -0.786399 1.591434 0.847098 -0.085557 0.670001 -0.141812 -0.979708 -1.732866 -0.683610
“ 0.392281 1.203422 1.287289 0.285288 0.636511 -1.300820 -2.091270 -1.068882 -1.063796 1.626541 -1.609563 1.288411 1.071123 -0.255030 -0.749001 -0.748596 -0.625444 -0.218608 2.118449 2.586374 0.370795 -0.920965 -1.040759 -0.627074 -0.601819 -0.005206 0.509658 1.264371 -0.027366 -0.625153 -1.285954 -0.490885 -1.293893 -0.637905 -1.778526 0.041196 -1.698696 0.404737 -0.606520 -0.338941 0.247895 -0.427122 -1.455583 -0.185164 0.987816 -0.106318 -1.565009 -1.634798 0.358072 1.637827 0.620204 -0.405677 -2.332883 0.675111 -0.316968 -0.239668 0.771346 0.583504 -0.856911 0.401580 1.082472 1.121647 -0.551980 -0.945924 0.420719 -0.688128 -0.030207 0.797160 -0.953728 0.798429 -0.238343 2.484375 -0.888168 0.277023 -1.226293 -0.189857 1.013360 0.668932 -1.657636 -0.363398 1.096257 0.123697 -0.753543 0.582880 0.190230 -2.558952 -0.000660 -0.829376 -0.296391 0.319173 -0.507414 -0.370512 1.875502 -0.173613 -0.807538 -0.386431 -0.080332 0.643280 0.538965 1.942849
上 1.106944 0.546124 -1.439363 -1.338339 -0.604432 0.098402 -0.072347 0.825585 -0.202812 0.794560 1.224463 -0.321238 -0.164591 -1.124600 1.437474 0.128735 1.161428 -0.050999 -0.056106 -0.354513 -0.222513 -0.509704 -0.369815 -0.375167 -0.899104 1.046155 -2.114237 -0.635220 0.336503 -0.134855 -2.367891 -0.769606 -0.172095 1.296218 -1.183937 2.286358 -0.444598 0.090949 0.016907 -0.434480 1.028070 -0.022346 1.245146 -0.719352 -0.655771 0.233163 -1.225981 0.052261 0.711312 1.217458 -0.143007 0.005977 0.483264 0.284404 -0.169187 -0.222124 1.453775 1.046517 -0.447841 -0.620088 -0.707583 0.165624 0.125002 0.734421 -0.107178 -1.594874 -0.340067 1.171762 -0.455699 1.011178 -0.585247 -0.546938 0.829009 1.600191 -0.077223 -0.543325 -0.916117 -0.120643 0.773844 0.938917 0.791090 -0.377233 -0.370156 -0.075570 1.259470 -0.392679 -0.405378 -0.356137 -0.171164 0.099461 0.012307 0.340226 -0.283049 -1.146102 0.688615 -0.115432 -1.086453 -0.409680 -0.310419 0.196395
发 -1.407173 -1.718373 -1.503678 0.476892 4.689697 2.330426 0.112527 0.536811 -1.261293 -1.544955 -1.285986 1.826329 1.625470 2.518876 0.773776 -0.531689 1.130670 -1.662569 1.366874 -0.046119 -1.487685 0.672663 -1.230955 -0.001373 1.812120 3.227467 -2.227280 -0.066812 0.195070 0.411295 -1.517053 0.511823 -1.532563 -1.044279 -1.855685 -0.100582 1.110839 -0.890440 -0.658377 1.167170 0.208900 1.729940 -3.276434 -1.054018 -1.320538 0.215232 -1.066962 0.634512 0.590513 -1.554045 -0.786130 -0.825578 1.938073 -0.584363 0.174230 -0.572845 -0.601151 3.312196 0.864982 0.906429 0.428682 -1.025073 0.223786 0.289253 -0.310616 0.889975 2.085892 -1.204812 -0.104815 -2.407093 0.355537 0.664440 0.761812 1.982988 1.410047 0.160463 -0.697518 2.225093 -0.532019 -0.047091 -1.106497 -0.241715 -0.438447 -1.079666 -0.484743 0.581076 1.210525 1.129606 0.062206 -0.541831 0.886013 1.858892 0.821837 1.781904 -0.078877 -0.107277 -2.412704 1.898682 2.186569 -1.136578
个 -0.006183 1.329464 -0.869321 0.221443 0.075872 0.991158 0.953807 0.539649 0.298079 0.468544 -0.528478 1.237231 0.491326 0.128649 1.287725 0.724472 -0.126262 -0.380244 -1.428901 1.059391 0.707173 -1.359209 0.935066 0.502611 -0.598193 0.845231 -1.120495 -0.246887 0.699962 -0.041131 -0.838903 0.566317 -0.515156 0.127641 0.237500 1.058636 -1.403029 -1.267113 -2.145272 1.263334 1.570207 -0.694183 0.131381 1.352757 -0.160234 -0.239129 0.808024 -0.405196 0.970247 0.221611 0.895048 0.181974 -1.115609 -0.927220 -0.901181 -0.245296 0.044817 1.189938 -1.221969 0.900250 -0.304516 1.494157 0.750260 1.023097 0.070959 -0.331884 0.424442 0.605631 0.143858 -1.916362 -1.169790 0.022605 -2.128077 0.789983 0.758656 0.576933 0.398302 0.275156 -0.782209 -0.382289 3.103996 -0.662170 0.368344 -2.189124 -1.159277 -0.059184 -0.157376 1.018935 0.418359 1.473588 -1.012975 0.225407 -1.377681 0.114242 0.302088 -0.703503 0.160887 -1.342049 -0.645379 -0.425105
业 0.839305 0.952303 -0.331944 -1.044736 2.200983 -0.611475 2.200967 0.301260 -1.203031 -1.349492 0.599511 1.171519 -0.441014 -1.271913 -1.739257 0.470805 -1.979913 -0.959170 -1.597679 0.752010 -2.252994 0.728506 -1.443491 -2.365102 -1.112762 2.242439 1.197803 -1.804076 -2.289439 0.310413 -1.210258 0.873034 -2.740270 -1.943493 0.250083 2.327114 0.897900 -1.311061 0.277914 1.631512 0.339323 -1.113782 0.164084 -2.285575 1.432616 -0.010778 0.218665 -0.800692 0.906751 -2.242907 -0.673521 -0.229280 -0.770461 -0.607269 -0.924764 1.975984 0.046064 0.913551 0.635976 -1.022280 0.150502 -1.105596 -0.559373 0.884825 0.116827 0.028386 -1.053104 1.212471 1.205728 -0.591989 -2.126074 -0.419300 1.168972 -1.001723 0.474717 2.203071 0.615974 1.224352 0.144793 2.814339 2.323022 3.223459 -0.548124 -2.500682 2.044531 1.851814 -0.684761 -1.198121 1.982486 0.468106 1.366460 0.540959 1.592925 1.489171 -0.096773 0.716136 1.463022 1.622644 2.915542 0.902796
作 -1.973836 -0.071191 1.124482 -0.708751 2.043641 1.039858 0.999629 -0.813024 -1.629164 -1.046824 -0.551437 0.941457 -2.299911 -0.574933 -0.178940 -0.160003 -0.556327 -0.356234 -0.423699 0.783479 -2.066851 -1.147246 0.756294 0.825662 0.010654 1.446356 0.318064 -1.297396 -2.255544 1.308261 -1.878216 2.430082 -1.277421 0.470943 -1.318831 -1.488486 0.060967 0.637034 0.074733 1.623990 0.375665 0.037717 -2.927542 -1.749690 -0.909026 -0.627754 -1.267551 -0.324541 1.077714 1.223248 0.831756 0.807498 -0.484476 0.731262 -0.264369 0.692856 -0.390819 1.480498 -1.549107 0.484634 -0.299843 2.226224 -1.055473 0.175973 0.283365 -0.138894 -1.047374 -0.467758 1.132750 0.200612 1.372609 -2.726481 0.273282 -0.308188 -1.230261 0.390665 1.085461 -1.402289 0.354858 -1.738757 0.282143 1.705894 2.201955 1.293402 -1.242079 1.436252 3.449957 1.344311 -0.069274 0.221195 1.509459 -0.859228 1.099000 1.339534 -0.487473 -0.107711 1.632046 -1.087657 0.884400 0.332880
地 -0.446994 -1.357633 0.026384 1.602586 1.790321 1.399032 -1.456770 -0.815991 0.347219 -2.100695 -0.471313 1.161068 -1.026025 -1.696935 2.273004 0.000695 1.854953 -0.663417 -0.037416 -1.154194 -1.610620 -2.009383 0.469850 0.080480 -0.180749 1.300484 -0.087337 -0.394947 -1.773908 -0.809492 0.466919 -0.519068 1.072883 0.237657 0.242576 -0.154427 -0.845476 1.187461 0.661291 0.067298 0.045742 -0.437501 -1.498630 -1.404309 0.434779 -0.223028 1.331502 0.069380 0.325057 -0.287949 0.107306 1.214943 -2.362419 -0.326920 0.953434 0.259136 -0.202376 0.997175 0.434211 1.366924 -1.027303 -0.650910 0.219726 -0.711524 1.149936 0.483830 -1.323234 0.010521 -0.496627 -0.142494 -3.414830 -0.018880 -0.941222 0.278766 -0.682038 0.218353 1.675574 0.206111 -0.552286 1.168936 0.706483 -1.111568 0.468885 1.477678 1.627792 1.673326 -0.158323 0.787432 -0.353392 -0.261661 0.317750 0.664440 0.583260 -0.737962 -0.459471 -0.122962 -1.399081 -0.239416 -1.055837 -0.706642
学 0.906322 2.263492 0.478090 -0.450484 2.843374 0.308700 0.461893 -1.344689 -0.075525 -1.564433 2.388362 0.902776 -0.281483 2.961393 -0.573242 -0.894091 0.807878 0.382877 -1.140485 0.050105 1.977808 -2.106500 -2.326608 -2.489354 1.639422 -0.840820 -0.271171 0.121356 0.530356 1.818852 0.647584 0.345444 -1.286907 -0.067737 0.857909 -0.564908 0.062972 -0.392507 0.334528 2.115059 0.210865 2.130370 -0.103202 0.288902 -1.152750 0.287426 -0.991602 -0.475318 -0.117970 -2.526163 1.904361 0.259289 -1.208181 1.084423 -1.469319 -1.215601 -0.942990 2.567647 0.096170 1.226406 -0.571955 2.002037 -0.966577 -1.893803 -0.634929 -0.900557 -1.572569 -1.236764 -0.595673 -0.133349 -0.414541 -2.041631 -1.593608 -0.369701 -1.202895 1.059813 -0.962549 0.237238 -1.915131 -0.875967 -1.024654 0.534573 2.022282 0.553305 -1.618107 2.139042 0.873946 -0.003816 -2.170203 2.906745 0.719819 1.177323 0.407781 0.481151 0.162054 0.355850 0.402339 1.105474 1.175729 -0.092100
出 -0.743792 -1.175238 -1.698662 -0.781144 -0.786791 0.224845 0.757924 0.453171 -0.943239 1.425421 -0.551074 -1.842304 0.998397 1.207146 0.940406 1.015569 1.429937 -1.975803 0.054530 -0.285927 -0.267202 -0.017305 -1.362795 -2.081901 -1.039126 -0.463997 0.196265 0.291563 -1.273196 -0.115859 0.421283 0.686411 0.729064 1.417594 0.075774 -0.452117 1.453169 -0.754951 -1.148457 -0.406183 0.123890 0.529462 -2.499571 2.321382 -1.285935 1.614458 -1.897556 0.743151 0.515020 -0.332920 -0.672676 -0.744411 1.989225 -0.858529 -1.497608 -0.544819 -0.436012 -0.373769 0.194012 0.797969 0.209597 0.012389 -1.333877 1.719838 0.476915 -1.127743 -1.171088 1.306211 -1.291715 0.896876 0.537256 0.472143 -2.392449 2.378702 0.644887 1.341635 0.661662 0.563161 0.189774 -1.127052 -0.961746 -1.201776 -1.354708 -0.483651 -0.349782 2.852943 0.253892 0.076232 2.168077 -1.116581 1.155366 0.240835 0.753789 -2.755691 1.367338 -0.040021 -1.938552 2.108917 -0.172092 -0.223652
行 -0.844634 -0.688972 0.208477 -1.647203 -1.836207 1.678433 0.617898 -0.252255 1.932658 1.453466 0.500171 -0.798540 1.486555 -2.008564 -0.791359 -0.757539 0.502747 2.003414 -1.060900 1.124819 -1.740862 -0.745410 -1.103063 -0.109053 -0.449886 -1.508107 1.456325 2.211189 0.388701 1.346269 -0.230518 -0.567388 0.091972 -0.626863 -2.961667 0.453314 1.816928 2.265043 1.174530 0.459755 0.922298 1.091868 -0.590987 -0.862572 0.337690 -1.116893 -0.528498 -1.328994 -1.180664 -0.419215 -2.850892 -0.621293 1.191627 -0.914391 -0.128150 1.015684 -0.227646 -0.014866 -1.095827 0.671404 0.137206 -0.171407 -2.622531 -1.361270 2.701740 0.521774 -0.268892 0.960594 1.452258 -1.517693 -1.713000 0.419973 -2.354774 1.869619 -0.629134 0.189122 1.429942 1.684304 2.550551 -1.598095 1.679995 2.543800 1.040915 -0.543622 1.030740 0.900503 2.447945 -0.399920 -1.816358 -0.552145 0.446052 -0.000226 -0.172266 1.205651 -0.460585 -0.292924 -0.470893 -2.391949 -1.318695 1.156668
日 -1.377639 -0.747307 -2.190889 -1.243834 -0.820233 -0.296270 -0.321733 -1.559810 -0.666508 0.126336 0.777693 -0.911944 2.100990 0.768443 1.988120 -0.677850 -1.600137 1.026523 1.798179 1.796417 -0.194859 0.515620 0.806354 -0.708032 0.135887 -0.140437 -0.487500 -1.189985 1.270968 -0.613929 -0.292272 -0.701568 -0.460433 0.451200 1.892600 -1.164936 0.889904 0.197924 -1.609237 1.141687 -0.225249 1.796752 1.889245 -1.679864 -2.446853 -2.990966 1.605356 0.508366 -1.189309 -1.029263 0.080132 -1.663680 -0.486769 1.078377 0.011811 0.046709 0.319660 -0.317993 -2.382879 1.856325 0.905478 -0.608103 0.645856 0.214624 -2.066526 0.066442 1.234972 -0.356493 1.297039 0.106064 -0.476175 -1.276686 -0.558236 1.699268 1.102077 -1.731452 -0.763182 0.366665 -0.867041 -1.779467 1.497993 1.450523 1.056411 -2.519650 0.506335 0.040732 -2.461275 -0.274915 -0.493356 -2.003925 -0.056220 0.306675 -0.551880 0.119680 -0.780926 -0.968991 -1.343647 -1.296951 0.591143 0.088920
以 -0.676391 1.006419 -3.122775 1.324914 -0.879268 0.434086 0.213489 -0.169456 -0.413887 -1.402247 -0.752687 -0.506550 0.713802 -0.277870 -1.182961 0.183646 0.564129 -1.013511 -0.709735 0.374270 -0.575487 -0.719931 0.539772 -1.108242 -0.084390 -0.173001 0.030789 2.053229 0.368155 0.394436 0.033117 0.121928 -1.494228 0.373871 1.760625 1.247956 -0.693883 -0.026090 0.494296 0.266831 2.025766 1.208167 -1.165186 -1.184777 1.208349 0.015396 0.999582 0.462167 0.504494 -1.143921 1.216565 0.156363 0.860315 0.809165 -1.031327 -1.051592 0.928645 -1.550591 0.647779 1.800513 1.084882 -1.094836 -0.988698 -0.207844 1.616950 1.489426 -1.854789 0.048965 -0.178306 0.721207 -0.424115 0.449078 -0.024397 -0.003604 0.587799 -0.402166 -2.485235 -1.994133 1.097602 -0.456922 -1.214517 0.017191 0.909541 0.325615 -1.775914 0.115973 0.729199 0.265952 0.673647 -0.954221 0.125105 0.649025 -1.432287 -1.020796 -2.686597 -0.380508 0.634802 -1.380930 0.441063 1.049619
家 1.474566 1.044510 -0.008339 -0.718784 0.056647 -0.134359 1.454947 -0.602492 -0.436764 -1.600901 0.324736 2.995542 -0.627817 -0.234903 -0.908312 -0.258599 0.250336 -0.600773 0.568497 -0.428109 -0.194821 0.163173 0.041186 -0.640483 0.223357 0.529526 0.675207 -0.171543 1.417972 0.403027 -1.406040 -1.934737 0.574180 -1.538260 0.970007 0.618190 -0.036072 -2.459479 -0.811352 3.616421 -0.159432 -1.908340 -0.604735 0.467839 -0.327121 0.366965 -0.627764 0.374336 -0.673464 -1.172874 -0.858883 0.441793 -0.179107 0.222454 -0.950755 0.264038 0.648271 -1.096756 0.523396 0.219909 0.805811 0.409839 -0.447817 -1.141883 1.575423 1.713017 -0.631445 -0.666513 -1.686303 -0.491749 -1.831772 -0.252187 -1.753550 0.174004 0.568037 0.213824 2.196039 0.218008 -0.369676 -0.722677 0.772826 1.679615 -2.613485 -1.370052 -0.697474 1.416785 -1.254537 -0.178280 0.278417 0.861975 -0.172921 -0.971898 0.295008 -0.208362 0.275001 -0.321904 0.509165 1.421134 0.498214 0.377154
对 0.216903 -0.265004 0.732085 1.800833 1.843178 -0.101794 -0.112266 -0.275537 -1.356285 0.600995 0.208156 -1.020709 2.103657 -0.255476 -0.381119 1.362152 0.232206 -1.039990 -0.495440 0.076475 0.162245 0.816239 -0.466705 0.686916 0.744584 -0.962076 -1.234423 -0.476792 0.476011 -1.169121 -0.629206 -0.075550 0.076762 0.528286 0.936938 -0.715869 0.551495 -0.030229 -0.439542 0.212618 0.386730 0.786907 0.576929 -0.284533 -0.117553 -0.081717 -0.758253 0.124851 -0.879218 0.191209 -1.676187 0.558012 -0.219665 -0.162817 0.217451 1.129596 -0.383134 -1.768485 -0.594142 0.094484 0.916357 -0.158381 -1.324292 0.542486 1.484807 -0.158832 -0.671297 -0.618239 -1.433447 0.153070 -0.329155 -0.862197 1.538142 1.142393 -0.397026 0.590588 -0.432441 0.368195 0.227868 -0.632624 0.443496 1.141645 0.318868 -0.070024 -0.094683 0.266549 1.548934 -0.165455 0.007507 -0.633062 0.099141 -0.080486 -0.738887 -1.082940 -0.809936 -0.707108 0.038594 -0.384084 -0.164964 -0.113805
要 0.024669 0.177509 -0.431365 1.501401 -0.009645 1.030402 1.707458 0.703512 0.685726 0.557534 -1.357753 0.342174 -0.916845 0.868845 -0.172138 1.397174 0.883528 -0.480610 -0.635711 -2.234894 2.655867 -1.436159 0.905526 -0.006326 -0.676114 0.708489 0.318068 -0.532117 0.790815 0.874111 -3.068229 2.246550 -0.804643 -1.066746 1.685599 1.050147 0.943559 0.354630 -0.532666 1.002811 -0.736880 -0.634798 0.566673 -1.157692 0.575290 0.819840 -1.834231 -0.604406 1.286627 1.170957 -3.271089 1.044503 -2.387353 -0.739734 -0.203877 -0.066865 -0.269483 0.740945 -0.230560 0.536465 1.142198 0.270385 -0.174763 1.767279 0.487960 0.672248 -2.707675 1.580660 1.236938 -0.543385 -2.558759 0.575537 -0.389776 -0.105857 -0.608323 -2.360222 -0.499945 1.292187 -0.695185 -0.816467 -0.162981 2.321225 1.181618 0.437141 -0.972734 -0.504776 1.095003 1.169908 0.035952 -0.416782 0.083448 -0.029860 2.548632 -1.020406 -1.270442 -0.096764 0.576563 1.079508 -0.553580 -0.585576
生 0.894528 -0.614150 0.539287 0.090211 -3.287864 -1.887942 2.671153 -1.652473 -1.213318 0.334849 0.096358 -0.632499 -1.547634 -2.283845 -0.833530 -1.608045 -0.391813 -0.997638 0.960908 1.196714 0.859227 0.396218 0.735516 -2.326601 -1.132869 0.601413 -1.121244 -1.553458 -0.537144 -1.779604 1.397368 -0.547920 0.324563 -1.860844 0.331628 3.258894 0.326532 -1.513781 -2.427468 0.750516 1.761720 0.606760 -0.187874 0.672047 2.038781 -1.255957 0.085690 -0.941239 -0.350570 -1.887772 -0.036736 1.373115 -0.893886 1.461259 0.022982 2.454846 0.507618 -1.409338 -0.229143 0.766957 -0.753746 0.650258 1.180406 3.163521 -1.337174 2.329358 -1.647490 -0.977582 1.718638 0.406921 -1.190052 -2.544892 -0.574029 -0.596515 -2.110121 0.467583 1.435843 1.625807 1.216504 -0.520329 -0.363950 -0.323932 1.126790 1.574354 1.867522 0.066377 -1.031750 -1.860709 1.176084 1.155177 0.520979 -0.914147 0.445904 -1.300041 0.555883 -0.370762 0.522599 -0.603123 0.618419 -1.798036
经 0.717948 0.070380 -2.352725 -1.887837 2.003009 0.906955 1.726681 -1.116463 -1.907810 1.314822 0.577462 2.077932 -0.870446 -2.068358 1.494815 1.846104 -0.571704 1.271590 0.275579 -1.801788 -2.638309 -1.464212 -1.334578 -0.129578 -0.286081 1.707616 -0.725455 -0.509554 1.084179 -0.552431 2.663717 -0.404076 1.194986 -1.445652 1.045385 -1.436154 0.289095 -0.874169 -1.626522 2.486826 0.976830 2.291959 0.250199 1.113013 -0.508591 -1.102184 -0.996063 0.997567 1.116944 -0.731692 0.466121 -2.280617 0.087399 -1.674912 -2.279260 -1.134781 -2.882725 0.049999 1.683248 0.645163 2.761378 -0.561880 -0.182838 -1.694736 2.363880 0.533163 -1.468411 -1.478245 1.711192 -0.102358 -1.860611 -1.126185 1.217747 1.349515 -2.172571 1.043765 -1.677026 3.008819 -2.006754 0.541234 2.605058 -0.857500 0.574962 -0.275245 1.370214 -1.055983 1.965375 -1.036056 -0.011628 3.259048 -0.635066 -3.104578 1.480033 1.966306 2.027436 -1.365893 0.577228 -0.498395 1.519002 0.574460
到 0.205084 0.777480 -1.345616 1.006849 -1.595591 0.406439 -0.135399 0.112824 -1.037872 -0.946745 -0.227176 -0.914743 -0.577714 -1.187356 1.904886 0.029937 -0.129515 -0.772116 -0.723453 -1.285333 -0.562838 0.566934 1.062342 -0.901862 1.085154 0.663102 1.151369 1.602677 -0.120810 -0.907641 0.289754 1.680882 -1.061748 0.791619 -1.751436 -0.184623 -1.196433 -1.126056 0.687570 1.372586 1.112813 0.265364 0.016249 -0.727263 -0.927643 1.940692 -1.698456 0.946900 1.199343 -0.905199 0.782638 -2.407554 1.807392 -0.280650 0.211730 -1.964238 1.169075 0.469784 1.520115 -0.761919 0.623613 -0.530127 -1.285581 1.267895 -1.508938 0.649915 -0.031487 0.327019 -1.757788 0.112465 -0.912800 -0.750256 -1.556176 -1.040655 0.188478 -0.936987 1.428162 -0.722651 -0.683962 0.906441 -0.798389 -1.042288 1.099295 -1.612856 -0.766463 0.499007 -0.682261 -0.841745 -0.237163 0.454876 1.127044 0.915613 -0.825727 -1.185326 1.685794 -2.152928 -1.360545 -0.188364 0.025863 -0.339526
来 0.307236 -0.027518 0.438895 -1.299686 0.427201 -0.062523 -0.218794 -0.396143 1.089741 -0.263253 -1.087867 0.888154 0.063655 -0.745984 0.062812 -0.943543 0.289183 -0.271770 0.581389 -1.827120 -0.454850 1.434561 1.094421 -1.939997 -0.023302 2.390771 0.102935 -2.316175 0.890296 0.242464 -2.119998 1.321316 -0.048700 0.177007 -0.885387 -1.959814 -0.890489 -1.290056 0.939433 1.044916 0.556291 1.456392 1.551404 -0.243632 -1.286462 -1.100392 -0.890246 -0.366767 0.738544 0.771084 -0.087527 0.227781 -1.211739 1.704202 -0.094411 -0.602064 1.098770 0.641100 -0.723078 -0.067183 -0.209553 0.956887 -0.567991 -0.348349 0.865916 0.890924 -0.746159 -0.297357 -1.870038 0.669126 -0.149885 0.519565 0.600456 0.850612 0.174627 -1.200376 -0.176975 0.268622 0.008588 -0.953371 2.329059 0.163911 -0.163194 1.311566 0.422091 0.188973 0.491187 -0.975080 -0.933416 0.299893 -1.118002 -0.346482 -0.573375 -0.701476 0.895916 -0.957602 -2.119291 1.129476 0.079156 -1.729808
多 -1.398150 2.950251 -1.692699 -2.258459 0.779919 -1.537838 -0.130380 -0.637542 0.217071 -0.839030 1.182050 0.006672 -0.207306 -0.099138 1.289086 1.841193 0.714705 1.511069 -1.001513 -1.559647 -0.986142 -0.142588 1.525565 -0.778135 0.020055 0.124414 -0.681747 -0.289009 -0.699060 0.190885 0.366594 -0.354274 -2.686059 -0.145681 0.441038 -1.006370 -1.561836 -1.857967 -1.252586 2.302897 -1.270066 0.174021 -0.225019 -0.424702 -0.366767 0.407734 0.474106 -2.137671 0.782973 -2.043946 -2.169671 -0.152285 0.435855 0.288789 0.067994 0.364673 0.523474 0.406445 2.057263 0.927155 -0.854067 -0.291316 -0.860459 1.363123 0.277703 -2.361764 0.195242 -0.005644 -0.879881 0.263398 -0.916897 -0.705641 -0.815141 0.188934 -0.833472 0.346455 -0.538880 -1.339882 -0.210193 -1.426402 -1.775643 -0.254103 -1.937687 0.331880 -0.428059 0.148716 0.267904 2.043743 0.335752 -0.339743 -0.121655 0.302730 -0.269281 -0.218199 0.841068 -0.114770 -0.517898 0.210152 0.089047 -0.706195
工 1.098279 0.680998 -1.568391 -1.572620 0.649980 0.724375 1.316171 -0.622514 0.992747 0.770297 2.553312 -0.098245 1.854939 -0.009500 -1.149679 -1.327234 0.010215 1.043817 0.104006 -2.849063 1.625856 -1.546083 0.067614 0.301091 -1.517218 0.668060 -0.825599 -0.182489 1.244692 0.250264 -1.226085 -0.771351 -3.272091 1.610738 1.094868 3.552455 -0.148006 1.713528 -2.433942 1.007707 2.279913 -1.181717 -0.616373 0.480244 -0.486576 -1.219732 -2.475372 0.537915 0.616984 0.319790 -0.109999 0.221285 -0.224191 -0.489952 0.348060 2.186481 -1.638813 -1.786944 1.417143 -1.449617 -1.056741 -0.711093 -2.255337 -0.780079 -0.072039 1.592668 0.008012 1.721407 -1.657932 -2.167628 0.200717 1.691675 -2.840283 0.197773 -1.632976 1.202904 -2.142781 0.924966 0.257992 0.135528 0.447940 0.439528 -1.919158 -1.531573 0.187885 0.427112 -0.545365 -3.056966 0.317463 -0.209853 -0.510859 0.575955 -0.055370 0.166073 0.604114 2.274713 -2.286237 2.145559 0.413062 1.299348
成 -0.484096 2.840843 0.054912 -0.317011 -0.554905 0.642660 -1.103258 -0.978976 -1.533436 0.738922 -1.774726 -2.877726 -1.519800 0.894826 -1.037322 -2.556639 -0.810965 -0.079353 -0.533253 -1.038873 -3.882714 -0.020286 -0.331786 1.489310 -1.047896 0.236401 0.589405 0.351970 1.674056 -1.773157 -0.186018 0.153242 -2.327667 -1.425546 0.826299 -1.554989 0.016932 0.131711 -1.112106 1.757790 1.594830 -0.186012 0.358179 0.167765 1.105169 0.514971 1.172976 0.256354 2.103388 0.065312 1.044866 -1.888934 -0.448487 -0.239855 -1.951050 -0.025926 2.393782 0.517362 -0.143664 -1.040287 0.567607 0.398916 1.182111 1.262307 0.816640 -0.605270 0.491154 -0.415267 -0.949627 -1.426411 -0.478839 -0.615383 -1.315306 0.326746 2.884240 0.415732 0.463394 -0.151717 0.097235 -0.335492 -2.167078 -0.571124 -0.115375 -0.505074 2.987478 1.373593 2.112299 -0.070638 0.796246 1.762001 2.047741 -0.017773 -1.048980 2.281905 0.657587 -0.221183 -0.095339 0.966339 2.253458 1.109618
们 0.167909 1.715701 1.100565 0.842243 0.315758 -0.379090 -0.458441 -2.255723 1.626336 -0.564521 -1.450336 -1.122701 0.419956 -1.002653 1.089986 0.161261 -1.481937 -0.077299 -1.360188 -0.316747 1.104715 -0.573552 0.214717 1.489453 0.620833 1.422459 0.591300 -0.733724 -0.302112 0.974602 -1.386050 0.583558 0.551266 0.464862 -0.768108 -0.629139 -0.566303 -1.488981 -0.122904 0.818119 3.057233 0.101855 0.565839 -0.508882 0.637292 -0.257883 -1.341832 -1.633085 0.507695 1.483989 -0.349816 -0.763036 0.254648 2.376946 -0.973279 0.560488 -2.857649 -1.054070 0.208363 -1.365438 0.251557 -0.897992 -0.078888 0.971406 -1.413817 -1.558417 -2.217392 0.315149 -0.070335 -1.568723 0.214765 0.227996 0.525007 -0.013274 0.520572 1.150783 0.164522 0.507851 -1.751843 -1.902580 0.807472 -1.463874 3.603434 -0.685161 0.724206 0.635585 0.976670 0.306194 1.035739 -1.214155 -0.706669 1.267280 3.455709 -1.659394 1.717249 1.578002 0.222984 -0.193665 0.719579 -1.504740
时 -0.229909 1.034093 -0.292491 1.628600 -0.660489 0.015300 -1.308532 -0.614576 0.432710 -1.416183 -0.496920 1.068430 -0.312716 -0.574524 -0.032293 1.281610 0.974843 0.097289 -0.504423 0.005867 2.303470 0.075850 1.114717 0.150301 1.638156 -0.625081 0.257797 -0.700407 -1.095081 2.821692 1.805341 -0.136428 -1.237406 2.625981 -0.514862 0.973930 0.840613 -1.710176 -0.136445 -0.564759 2.797723 0.076800 -0.701658 0.289034 -0.493215 -0.158770 -0.743747 0.328573 -0.558402 1.873664 -0.752681 -0.861263 1.283930 -1.509988 -1.813765 -0.815779 -0.611739 0.357382 0.171091 -0.540840 -0.341848 -2.065534 1.394331 -1.105185 2.209807 0.226951 -1.059929 -0.758090 0.923175 0.852349 0.017221 0.820414 -1.344767 0.024644 0.693967 -0.615902 0.099962 -2.366986 -0.444278 -1.245335 1.115054 1.908278 1.006697 -0.196839 0.326181 -0.326112 0.820408 -2.415018 -1.325008 1.064802 0.370629 0.544109 0.641589 -1.288803 -1.628742 -2.009201 0.647180 -0.570647 0.156832 -1.307495
他 -0.919066 0.515175 0.315327 -0.952643 -0.378769 2.690807 -0.730900 0.113672 -0.808682 -1.380755 1.044458 0.905284 -0.021639 -0.045650 -1.082284 0.743388 1.528756 0.203338 1.175381 0.829798 0.283295 1.592688 0.638535 -1.848481 1.803309 -1.811701 -0.684688 0.135865 0.621725 -1.299949 -1.827446 1.457814 -0.002584 -1.550922 -0.272497 1.061875 -0.568328 -0.808300 0.559041 1.061728 1.582867 -0.496595 0.408105 -0.798097 -3.718599 0.391652 -1.535227 2.121252 2.209202 0.422483 -0.696250 1.373876 -0.871226 0.986851 0.298218 0.681447 -0.034264 0.865704 0.579515 0.619984 0.677097 0.702642 1.962116 0.650987 0.991265 1.358445 -2.260338 0.610764 -0.199205 0.377989 -0.378460 -0.228771 -2.231384 0.548286 0.245882 -0.883134 -0.644397 -0.743990 -0.411242 -0.650205 -0.851933 -0.606220 -1.206286 0.376255 -0.612879 -0.034416 0.295385 -1.625592 0.716975 0.623902 0.022165 -1.010309 0.723367 0.002949 -1.577983 -0.468667 -0.430210 0.621024 -0.755945 0.394041
部 -0.641885 -0.958924 -0.045920 1.172986 -0.677621 2.475694 0.753591 0.502646 -1.073769 -1.911653 -0.183084 -0.647947 1.708151 0.780756 -1.124940 0.749122 -0.133633 0.442721 0.388681 0.085628 -0.177832 -0.689772 -1.454505 -2.666610 -2.063962 0.546320 1.560985 -0.685788 0.789290 2.073280 -1.655317 -0.940910 -0.264296 -0.893376 0.582842 -0.175109 0.032123 0.953826 -0.597233 -0.890524 1.502679 -1.753342 -0.125069 0.838666 -0.026713 -0.194899 -0.263249 0.579729 2.413784 -1.748967 0.835363 -0.362073 -0.547703 0.350744 1.101131 1.099013 -0.245559 -0.969617 1.249305 -0.757155 -1.057330 -0.210632 -2.227891 -2.010221 -1.149413 -1.017510 2.164320 0.207046 -0.007554 -1.728874 -0.372040 -1.846019 -2.593950 -0.733888 1.235809 0.474201 2.868245 1.573236 -0.327827 -1.241977 0.321614 2.625416 -0.453051 1.933029 0.641256 -0.395619 2.193640 -1.095133 -1.199229 -0.761038 -0.694574 -1.556383 -2.023951 -1.252910 -0.544739 0.963749 0.254548 1.124861 0.581370 -0.883090
进 0.210280 -0.201083 -0.518608 1.510131 1.478894 -1.278927 0.091070 1.457313 -3.505651 1.879743 0.203263 -0.588014 -1.312321 2.195106 0.895012 2.015108 -1.455057 -1.992400 0.383695 -1.215178 0.893745 -0.315108 0.502560 -0.575178 1.131029 2.558650 -0.461656 -3.810989 1.269497 -1.852680 1.731620 -0.543025 -2.312423 0.248984 0.526933 1.523017 -1.838226 -0.412554 0.290464 0.413419 -0.779116 -0.430479 -0.607614 0.779868 -2.941502 -2.830241 -2.662755 -0.791509 0.929993 -3.529936 0.218584 1.123206 0.508074 1.249833 1.189278 -1.971846 -0.941789 -0.785672 -0.511547 -0.816902 1.004694 0.760937 1.558737 0.646473 -0.831361 -0.373572 -0.700714 1.237763 1.726793 -2.030795 -1.547690 -0.800763 -1.152551 -0.344951 1.526443 0.524679 -0.970659 0.068656 1.307106 1.499501 -0.357016 -1.141618 -0.686188 -1.344197 1.065109 1.084556 1.437717 0.311882 1.975729 0.089438 0.796387 -0.142335 0.501744 -0.304173 0.697240 -1.297161 1.197758 2.799094 1.546871 1.397143
我 0.414716 0.303817 -0.069517 -1.515895 -1.460264 1.379011 -1.116129 0.033267 -2.514966 -1.481726 1.231942 1.639288 0.438735 0.331273 -0.991696 0.688987 1.966785 -0.465992 1.202339 -0.155615 0.810054 0.798404 1.210274 -2.732997 1.441244 -1.691307 0.384137 0.689810 1.264132 -1.073154 -1.228194 0.584279 1.080793 -0.994965 -0.899131 1.661229 -0.393550 -0.586915 0.552382 3.182496 0.906660 0.342093 -0.592917 -0.975320 -3.840941 0.729630 -1.314539 1.574357 1.809387 0.726528 -1.367756 1.570601 -0.601178 0.723904 -1.202236 0.942410 -0.291355 0.792390 0.004686 -0.175470 0.421783 1.876433 1.677934 0.262340 1.463095 1.136449 -1.662711 -0.407811 -0.919125 0.298034 -0.876050 -0.416401 -1.330879 1.160834 1.042886 -1.080576 0.033467 0.339395 0.167251 -0.383040 -0.556035 -0.562161 -1.914815 0.196387 -0.949323 -0.439949 0.333760 -1.880878 0.261414 1.231039 -0.309063 -0.465408 0.493418 0.478506 -1.997007 -0.528468 0.436877 0.355425 -1.235519 0.064635
市 2.141437 -1.419371 -1.662474 -0.511259 1.526022 3.305018 -0.321608 -0.098084 -1.921762 -1.276019 -2.680155 -0.282694 -0.649744 -0.248051 2.439294 1.132679 0.965089 2.037145 -0.674758 -2.029281 0.448140 -2.845841 0.532312 -1.922598 0.682421 1.784040 -1.386805 0.125327 0.375393 -1.628458 0.654026 -2.471649 0.473520 -0.010660 -1.117400 0.539173 2.189059 -1.588701 1.581668 -0.103284 -0.740747 -0.214603 1.074514 0.068105 -1.527872 -0.526381 -0.764127 -0.979833 -2.270546 0.434854 0.440534 0.473705 1.109213 -1.434650 -0.152685 2.138760 2.154947 -0.254377 -1.551900 1.728656 -0.596282 -1.076735 -0.646555 -2.687781 0.307150 -1.634791 -0.669215 1.994390 -0.321801 -0.730279 -1.376717 0.992546 0.766680 0.311805 -1.683241 -0.521807 0.350626 -0.986220 -0.661795 0.838313 -1.086220 3.272275 -0.405112 0.712084 0.750579 -0.788945 0.599443 -1.060113 0.997181 -1.924436 -1.008366 -1.100656 -0.536129 1.612458 2.424090 1.563176 0.132611 -1.029779 0.768115 1.777378
民 -0.330320 -1.903531 -0.206883 1.869707 0.817371 -1.925739 -1.896420 0.911759 -0.245013 -1.204049 -1.454704 0.516623 -0.687197 -0.704774 -1.621630 0.091896 0.793186 1.923596 1.011973 -1.390067 -1.452102 -0.101993 -0.394026 -0.185773 -0.029773 -0.682654 -0.950649 -1.423440 -0.061668 0.645361 -1.875161 0.433593 -2.283947 -2.044417 0.338536 -0.058662 0.963892 0.818779 -0.064581 5.839401 -0.474966 -1.430115 1.484239 -0.818481 0.858891 -0.743037 -2.587713 -2.477135 1.453691 -1.176534 -1.083016 -0.593048 -1.653737 1.657973 -1.040328 -2.682824 -2.559543 -1.657980 1.927601 2.011577 -0.648692 0.341379 -1.730018 1.083485 1.484376 1.045367 -0.705908 1.090607 0.311070 -1.095298 -0.661004 -0.624070 -0.454946 -3.780723 2.179098 0.507568 0.861073 -0.991219 -0.797832 0.275961 1.629439 0.650052 -1.024839 -1.596733 -0.258481 -0.079654 -1.200654 1.179677 -0.563472 1.051624 -0.114107 -0.064365 -0.332403 -1.014666 -2.590701 2.184818 0.936392 -1.833181 -2.519590 0.279537
本 1.170190 -0.536934 -1.665178 1.080992 -0.035759 0.206847 0.350678 -0.257830 1.069269 0.977104 1.964373 -1.184455 0.170594 1.144481 1.380161 3.027651 3.020606 0.609770 0.829114 -1.500494 -0.728631 -0.311649 0.574058 -0.331499 -1.750146 -0.673480 1.953747 -0.742002 -2.110661 -1.113679 -0.894781 -1.794976 0.291957 0.256379 -2.540532 1.111258 0.427231 -0.083137 -0.576461 -0.137288 0.666708 1.719221 -1.930768 -1.091235 0.040484 -1.121569 -1.167232 0.748643 1.176198 -0.739018 -0.377678 0.137590 0.068281 2.157369 0.276700 -1.022773 -0.187739 -1.461792 -1.552656 1.306821 -1.147928 0.496317 0.039696 0.577906 1.718871 0.333095 -0.129134 0.602311 -1.112261 -0.365300 0.940586 -1.226278 0.750386 -1.691630 1.041444 1.042722 0.274830 0.580331 -0.144049 2.504687 2.035552 0.787524 0.055736 0.417566 1.690642 -1.494421 -0.591692 0.124806 -0.862251 2.529430 -0.954225 0.014618 1.447512 0.808476 0.333935 1.594052 0.552996 0.026666 0.178421 -0.118341
于 0.873579 -0.185077 -0.534870 1.561360 0.035462 1.189755 -0.264077 -1.305127 1.081303 0.826102 2.211736 -1.172748 -0.013674 -0.018884 2.172867 0.644081 1.900949 -0.152469 -0.209394 -0.271652 0.746910 -1.153752 1.721876 0.631134 -0.320005 0.524980 0.285153 -0.272104 -0.563968 0.731046 -0.505277 -0.136298 -0.263945 -2.205900 -0.811838 -1.251103 0.010664 -0.527779 1.043389 0.778623 -0.429880 0.764362 0.931604 -0.710248 -0.149505 0.755705 0.878456 1.378069 1.325580 -0.182233 0.440838 -0.100647 -0.450410 0.572185 -0.423422 -1.289160 -0.337846 -0.154795 -0.046637 1.348056 0.928219 -0.997478 0.282954 -0.236086 -2.022829 2.114763 1.592430 -0.462253 0.302868 -0.200603 -1.415894 -1.366251 -1.767617 0.101934 -0.407921 2.512953 -1.023360 -2.066457 1.548146 -1.849531 1.313966 0.923729 0.135140 0.503926 1.195763 -0.871946 0.099787 0.662933 0.626731 0.678686 0.541989 -1.984483 0.272066 -0.672411 -1.043519 0.505176 0.250580 0.091254 1.529031 -1.017324
全 1.740395 1.360653 -1.398865 -0.411928 -0.496973 1.653798 -1.156582 1.053999 -1.334814 0.351357 -1.044104 0.841178 -0.182769 0.341016 0.378858 -0.731079 1.551232 1.356318 0.029713 -0.848644 -1.571659 -1.008866 0.922462 -0.986136 0.109245 -0.156496 0.297095 1.760650 0.180312 -0.465251 -0.767921 -1.790892 -1.068125 0.435643 2.261798 1.068652 -2.170273 -0.940409 -2.653843 4.912362 -1.009445 0.412199 -0.377422 -0.183942 -1.064378 -0.914128 -1.855455 -1.060083 -0.595983 0.159639 -0.930964 2.555560 0.789934 -0.128896 -0.451012 -0.459720 0.091121 -0.136566 -0.094315 0.703350 -1.213204 0.881570 -3.014249 0.000241 0.688604 0.860919 0.548263 -0.796274 -1.772321 -2.038953 -0.679334 0.028197 0.701904 1.623004 0.515839 0.698995 1.225194 0.968132 0.875022 1.621671 1.168752 -0.450546 -0.271933 -0.360611 1.151506 0.450558 0.184871 1.169682 1.751543 0.966091 0.517826 1.100228 0.811621 0.665429 -1.975705 -1.711842 2.595075 -1.245406 1.488504 0.570840
理 2.282063 1.340775 -0.734399 1.640211 1.113785 1.732819 -0.294681 -0.134630 0.630879 1.165454 2.234806 -0.386042 -1.301255 0.301345 0.983752 -1.582988 -1.779630 -1.580730 -0.767497 0.687963 1.375993 -1.034482 -0.754928 1.019564 0.482704 0.596965 3.597142 2.050078 0.094888 0.033201 -1.404301 1.007247 -0.994381 -2.765256 0.544536 2.788903 -1.326297 0.088833 0.636662 0.155186 -2.019994 -2.804213 0.774055 -0.265786 -1.288231 -1.927735 -2.646400 -1.224215 -0.653795 -1.065861 -1.925270 -1.628841 -0.445633 -0.555819 -1.303657 2.686416 -0.961545 1.578478 -0.764961 0.050522 -2.850082 0.712342 -2.325969 1.098422 1.638937 1.363188 0.107478 -2.275268 -0.104403 -0.035214 1.504017 -3.716857 -1.514928 -0.487200 -1.031452 0.679199 0.069618 -1.735047 0.312138 0.453223 -1.636938 -0.237572 0.923120 0.169849 0.136813 0.362584 0.594578 -1.163687 0.668426 0.415557 0.212653 -3.256664 0.232427 -0.634495 -1.292386 0.713088 1.436612 1.322020 0.668052 -1.366246
长 -1.066349 -1.864351 -1.712491 -1.243023 0.297165 -1.320635 0.203416 1.549118 0.417435 -1.946973 0.724274 1.604044 -0.089962 1.590115 -1.239014 0.778268 -1.898626 3.678507 0.309416 -0.420121 -0.094207 -1.155349 -0.404508 -0.054435 2.565499 -0.594295 -0.430238 -1.832670 0.160226 -1.199240 1.871591 0.213458 -0.107055 -0.555294 1.678794 0.392343 -0.739393 -0.255374 -1.737809 -2.006946 0.873261 -0.743285 0.000166 -0.088062 -1.792413 1.099913 -0.333790 -0.440904 -0.525286 0.201930 -0.035305 -1.921522 1.161959 0.387022 0.357539 0.691926 0.421040 1.952649 -1.424429 0.665104 0.341689 1.860454 -2.619117 -0.816232 0.072018 2.193214 1.290607 -0.906152 -0.893791 0.786631 0.603123 -1.059048 0.294457 -1.036602 -0.552426 -0.262198 -1.096528 -0.544640 -0.923906 0.641700 0.402297 -0.338264 -1.096431 -0.753717 1.242985 0.500150 0.466910 0.785274 -0.435074 2.257693 -0.089952 1.546533 2.406169 -1.429494 0.001271 -1.382566 0.747631 1.333249 1.605767 -2.073861
新 0.702476 -1.682102 -0.935885 -1.876202 1.018589 -0.846523 -0.584148 1.041522 -0.412876 -0.497161 -0.566551 -0.259069 0.143005 1.206053 -0.808705 0.659379 -0.528936 0.014833 0.040689 -0.268199 0.501582 -0.412700 -0.946862 -0.206087 -0.581489 1.470547 0.723566 -0.377207 -1.210959 1.618225 -1.168832 2.184586 -0.252678 -0.425896 0.577602 -0.607855 1.375282 0.716750 -2.357750 -0.243331 0.385284 1.372791 -0.050252 -0.613234 0.305047 -1.308025 -1.829652 -1.671237 0.666718 1.380419 -1.328826 0.415627 0.684738 -0.352433 -0.521755 1.729540 0.784525 0.857829 -1.429674 -0.962499 0.386693 0.272059 -0.308677 1.405957 -0.261987 -1.145516 -1.047852 -0.511140 -0.222503 0.343310 -1.241644 0.415037 -0.484458 0.964502 0.682819 -0.681437 0.274479 0.039331 1.504387 0.000595 0.125157 1.914439 -0.832307 0.699178 0.675976 0.820651 -1.125232 1.293634 -0.030481 1.026811 1.059247 -0.437700 1.856228 2.014502 -0.395015 -0.631019 0.815747 0.152806 -0.330276 0.021694
主 -0.657104 0.419314 -2.982512 -1.010668 1.412489 1.957084 -1.196719 -0.856772 -0.256546 -0.010085 1.002542 0.635620 2.205050 -0.413168 -0.016851 0.893229 -0.057448 0.599081 1.031322 0.463024 -0.759350 -1.451890 -2.237052 0.109296 0.403456 -2.143588 0.903331 -0.053267 -0.484990 -1.209816 0.932351 -0.055300 0.812114 -1.030670 -2.151012 0.986435 2.380600 -1.610163 1.662004 -0.662318 2.035194 0.611212 0.282734 2.771931 -2.188414 -1.660141 -0.681331 -3.372531 -0.973788 2.360115 0.573717 0.599909 0.846336 -0.758302 -2.383960 1.111610 1.363443 -2.012712 -0.268018 -0.017902 -1.151352 1.835136 -1.926146 0.339455 -1.102048 -1.745205 2.665245 -1.265636 -0.572083 -2.614114 1.797421 -2.081764 -1.653109 -0.329277 -2.510962 3.581815 -0.716506 0.589890 1.759316 1.675280 0.151232 -0.395235 0.344906 1.696704 0.568485 0.426006 0.834661 1.128827 1.068058 -0.944576 -1.538040 -0.667797 -0.784303 -0.028262 -1.021727 -1.353266 1.748029 1.406874 0.355404 1.510126
政 2.605442 -2.480711 -0.259189 4.918958 0.639960 2.120053 -0.050816 -1.549910 0.485835 1.353726 -1.004019 2.163050 -2.440279 0.546720 0.737358 2.165856 -1.532495 0.546013 -1.691315 -0.276001 -1.130608 -0.072530 0.422946 -0.011000 1.111562 -2.200245 -1.551944 -0.387945 -1.738288 -1.593179 0.644303 2.672341 -2.613150 -4.986054 2.361357 0.428702 1.040902 0.526958 -1.268056 -1.628804 -0.875926 -1.985997 -1.040932 0.114810 -3.420391 -4.019709 -2.053807 0.877851 2.013809 -2.017342 -0.573262 -1.478215 -0.533720 0.438478 -1.886992 1.466903 0.225315 -2.162408 -1.460736 -0.011393 1.162841 -1.247732 -2.868867 0.341846 1.824652 -3.638907 0.051669 -1.145028 -1.549123 -1.425448 -0.751991 1.641985 -0.158039 -0.383734 -1.495968 2.109247 -0.023350 -0.994618 -0.491053 -0.191475 -0.303975 1.658535 -1.300250 -0.261388 -0.758384 0.564051 0.513903 -1.517018 -1.501917 -1.133573 -0.903765 -1.828972 -0.008931 1.935163 -1.143267 -0.969537 1.866486 2.387661 1.692631 -2.324571
展 -1.594294 -1.223670 -0.220816 -2.428559 0.247996 -0.150033 1.234006 -0.483815 -2.070367 0.454502 -0.592019 1.142753 -1.696024 -2.748718 -0.279615 -1.874864 1.325057 -1.215422 -2.929604 -1.052737 1.484453 -2.007767 -0.090343 -0.337208 -0.507125 -0.031630 1.568967 0.741768 -3.150851 0.773013 2.005413 -2.544194 -0.335291 -1.055322 1.798157 2.711319 2.536303 -0.376462 -0.968606 0.811812 1.118233 3.038509 0.202444 1.209694 -0.850226 -2.827597 -0.073094 -2.510669 1.241615 -1.482977 -1.698138 2.166351 -2.243189 1.470342 -2.616710 0.666012 -1.811985 -1.790820 -2.125294 -0.426890 0.078849 1.254619 -2.405081 0.465111 0.496802 -0.290805 -1.680153 0.497371 0.138014 0.570238 -0.768840 -0.359400 -3.021872 1.515847 -0.956966 -0.952566 0.578210 -0.449972 1.031857 -0.591053 1.412484 1.113036 -0.013764 -0.053013 1.194749 -1.193791 -0.017838 -0.683719 0.505212 0.747107 1.391610 -1.192367 2.100214 0.198623 1.986344 0.206728 1.556294 -0.693518 0.919877 -1.013268
实 -0.601721 -1.513686 -1.837856 1.232133 1.643917 1.384239 0.012495 1.987984 -2.632201 3.531848 0.693895 1.242703 0.095654 0.196805 0.355584 3.904189 -2.143922 -2.293780 -0.122397 0.068028 1.514940 -1.594970 -1.390246 -2.495748 -1.004005 1.207292 -0.239460 0.855330 0.224014 -0.295881 0.536376 -0.064054 -1.154617 -1.964059 -0.892874 -0.238779 1.108717 1.947810 0.126472 -1.608876 -1.251240 1.844188 0.004605 -1.680527 -1.335899 -1.154219 -0.789672 -1.249362 3.874749 0.690723 -0.719925 0.267445 -0.552266 -0.360744 -0.112339 -1.538067 -1.125227 2.763132 0.616727 1.213168 -0.750742 0.103361 -1.401910 0.017358 0.916565 0.603426 -2.582578 0.552101 -1.178366 -0.717704 3.172188 -1.126478 -1.734399 0.216737 -1.373899 2.062030 -0.841995 1.710008 -0.317629 0.660785 -1.237863 -0.952153 2.981093 -1.535503 0.012117 2.333543 -0.078580 0.006274 0.927644 0.021372 1.118329 -0.501862 2.766547 -1.163628 -1.223132 0.280090 -1.041490 0.687291 0.794895 -0.420009
下 2.242987 0.963955 -0.560645 -0.837253 -1.119616 0.530324 -0.815986 0.648403 -1.355338 1.198553 -0.376836 -1.900976 -0.558906 -2.574654 0.100734 0.310400 0.086409 0.601059 -1.156368 0.652534 -0.679423 0.430755 0.385850 -0.849726 -0.947194 -0.102115 -0.017048 -1.723903 -0.767386 -2.094986 -0.994224 -0.060687 -0.202654 1.985354 -1.215629 2.189874 -0.977393 -0.687559 -0.588943 -0.470464 0.974000 -0.333802 1.387006 -0.868736 -1.165071 0.097216 -0.762192 0.728634 1.877534 1.898784 -0.295750 -1.293346 -0.375930 -0.525413 0.225599 -0.625680 0.154863 1.366335 -0.348814 -0.391746 -0.215176 -0.539736 -0.481875 0.653523 -0.299448 -0.305877 0.238678 0.174542 -0.194009 0.784648 -0.641088 -0.453409 0.053776 0.051432 0.057987 1.530775 -1.222683 -1.224298 -0.176810 -0.274885 -0.103768 0.757099 -0.406008 -0.469665 0.721792 -0.152072 -0.366426 -0.098301 0.742715 -2.496425 -0.636755 1.224982 -0.606540 0.155869 1.369585 0.882584 0.771996 0.950540 0.505674 1.280031
开 -1.406937 -1.422507 -0.743390 0.354841 -1.712050 0.365891 1.101894 -1.125131 -0.478500 0.028813 -1.894659 -0.397749 -0.088682 1.547845 0.347773 -0.695691 2.176085 -1.512795 1.478776 -1.414287 -0.381458 1.341186 -2.797831 0.603314 2.413366 2.638204 -2.265776 -2.445452 1.136915 -0.185697 -0.122701 -1.124497 1.478305 -0.382522 -0.707005 1.830901 2.785653 1.071833 0.791669 1.666979 0.260902 -0.655711 -2.354985 1.808161 -0.616337 1.152157 -1.358893 -2.377976 -0.401935 -0.610210 0.051090 -0.096318 1.126260 0.191399 1.488628 -0.866454 -1.513598 0.630035 -0.568693 -0.717860 -0.397830 1.070358 -1.689134 0.863347 -0.934359 -0.539012 -1.042706 -0.945078 0.519949 -0.454483 -3.313879 -0.624531 0.005329 2.718091 0.042086 0.084369 -0.135139 -2.343143 -0.828570 0.712349 1.863866 1.874038 0.013932 0.090485 1.042307 -1.332522 0.451408 -1.434002 1.179760 -0.358225 1.972967 1.169102 -1.058904 0.659032 2.464651 -0.116753 0.445573 -0.394477 2.379426 -0.002256
方 0.534093 2.629489 0.175807 0.933887 0.878895 1.362073 -0.129951 -0.857408 -2.130378 2.281549 -0.199186 0.001876 1.151479 0.361507 -1.281100 1.780580 -0.485650 -0.793410 -2.281743 -0.878128 -0.052642 1.523038 -1.987313 0.606322 -2.127949 -0.699248 0.222867 -0.772766 -0.298017 0.254205 -1.764678 -1.396351 -1.208389 -0.194400 2.176831 1.274089 -0.032304 -0.951863 -0.325316 0.833242 -0.259550 0.503612 -0.133657 -0.195767 -2.583549 -0.397053 -2.119992 -1.438719 -0.253577 -0.031298 1.168016 2.140583 -0.015859 1.638747 2.022735 0.016814 -2.210389 1.747494 0.613944 -1.013736 1.722997 0.410485 -1.940336 2.621339 1.208318 0.399373 0.393503 0.810864 -0.593400 0.165636 0.306362 0.842895 1.731017 0.458090 1.437846 1.084439 1.806526 1.184322 1.722899 -2.937715 -0.374514 0.225555 1.679494 0.517201 -0.668483 -0.984738 -1.028747 0.432560 -0.023659 1.477048 1.806313 -1.036516 -2.015668 -0.214990 -0.875521 -3.430444 0.443361 -0.791571 -0.065144 1.597942
同 -1.174807 -1.375553 -0.038991 -0.687911 0.959862 -1.440056 0.990090 -2.103357 -0.831327 2.384923 -0.038099 0.814987 0.786159 1.292436 -1.317725 0.625689 -1.563004 0.631406 -0.128418 -1.390338 -2.153120 -1.923916 0.108371 0.367180 1.617339 -0.571691 -1.964203 -0.060231 0.645584 -0.575477 -1.141663 0.230949 0.801653 0.178319 2.656570 0.083164 -0.812695 -1.593576 1.702573 0.400824 0.082904 2.028536 -0.054170 -2.157788 -1.766930 0.714004 -2.733838 -0.113774 0.972835 0.437464 -1.051342 0.264352 -0.202799 -0.022349 -0.567010 1.394393 -0.470122 0.308477 -0.665073 -0.024178 -1.868197 0.622137 0.175425 0.671431 -0.928793 -0.904895 0.346052 0.084947 0.888168 -0.760027 -0.859756 -0.299054 -1.069143 -1.583561 0.110525 -0.884187 1.785632 0.475909 1.690654 0.441459 -1.666863 1.130006 0.917256 -0.288766 0.230802 -1.375681 0.017087 1.606125 2.674155 0.610884 -1.505476 -1.521564 -0.063616 -1.541822 -0.888406 -0.412608 -0.861316 0.647230 -0.293414 -1.134876
公 0.362172 -0.779691 -1.505368 -3.727786 1.538142 0.118563 -0.830717 1.727076 -0.216126 -0.129498 -1.573998 0.484475 -0.029997 -0.951598 2.597225 0.654620 -1.403992 1.544212 -1.112993 0.536866 2.475520 -0.385930 0.105455 1.726524 1.407598 1.550024 0.176631 1.171297 -0.097304 0.607422 -2.877836 -3.022178 -1.279763 -1.252525 1.341111 -1.708745 0.322772 -1.604294 0.384530 0.147568 -1.544816 1.326206 -0.984841 -1.210002 0.500847 -2.553664 0.145226 0.735505 1.637849 -1.894579 -0.700988 0.392163 2.496563 -1.989050 -1.519381 3.064335 2.924617 1.461804 -1.398109 -0.628107 0.010165 -1.230722 -2.163799 1.006290 -1.513698 1.375834 1.065678 -0.522735 -1.116912 1.190081 1.036597 0.401920 -2.141894 -0.980212 1.666930 -0.334656 3.130538 2.217893 -0.122189 -2.191643 -0.282736 -1.000068 0.069542 0.321836 1.795789 -0.545330 0.941302 -1.860797 0.341910 -0.330202 -0.405953 0.797663 0.021134 0.659917 -2.527272 0.824136 2.497527 0.827115 0.426925 0.269879
现 0.498023 0.314928 -1.416863 0.166791 -0.041120 1.772106 -0.735254 -3.089810 -1.211875 -1.501351 1.731010 1.050324 -1.003160 -1.430654 0.564230 -0.174888 1.250425 -0.525899 -2.333808 1.435148 -0.747030 -0.779521 1.959888 0.353188 0.224583 1.468832 -1.693159 -0.702419 -0.274519 0.631514 0.915326 -1.299134 0.661198 -1.878235 -2.545527 1.137957 -0.476863 -0.177853 -1.316378 0.990925 -0.379739 -0.253062 0.373642 1.246193 1.140688 0.732439 -1.411098 -1.870155 -1.076159 0.526315 -0.187849 2.205142 0.258572 1.029429 -0.352499 -0.281785 -0.590814 -1.023229 -0.663180 -1.138189 0.220704 -0.069291 0.376814 -0.179621 1.576749 -2.734658 -1.707369 0.229799 1.676531 1.334117 -1.993433 0.529648 -0.432742 2.515519 -0.307795 -1.057360 -0.361245 0.431198 1.512583 -0.033913 0.604922 2.082001 0.951925 -0.782060 2.317601 -1.592647 0.031480 -2.359326 0.504426 -0.155906 -0.309750 0.018752 -0.605442 0.756108 -2.606357 0.344029 1.017381 -1.006264 0.396671 -1.411133
动 0.372479 -0.851270 1.328281 2.032563 -0.940050 -1.591463 -0.149327 -0.778207 -1.560898 3.519883 -1.966367 -0.871268 0.078446 1.109121 1.127347 -1.662730 -1.250776 -0.357415 0.830105 -2.554668 1.127057 0.097542 1.777690 -0.537462 -1.218979 -0.746383 1.010129 -3.032228 0.591653 -0.645893 1.623235 0.060140 0.871783 -1.764018 -0.726073 1.838131 -0.270384 -0.261475 -2.401344 1.933218 0.504266 0.332908 -1.372634 0.241568 0.883769 -2.228135 -1.625452 -1.006463 -0.550266 -0.837891 -1.697343 0.400770 -0.870047 2.619019 -0.097810 1.382011 2.307849 -0.565957 -0.228453 0.303681 0.329508 -1.103943 -1.205821 -0.161398 -0.468094 -0.507735 -2.810299 2.361069 2.708278 0.709035 1.882208 0.138561 -0.271584 -0.590786 -2.025832 1.213632 1.426097 -0.190961 0.035613 0.647414 1.846070 -0.940371 -0.608937 -0.217210 1.495402 1.691982 1.009509 -1.732441 1.752807 -0.062690 1.397514 1.236787 -1.294418 -0.366839 -0.669174 -1.020176 -1.114377 0.353394 1.444126 -0.253407
队 -0.915749 1.917800 -0.337066 1.984784 -0.421547 3.003506 -0.250268 -2.324625 -0.709033 1.319210 -0.961588 -0.768570 -0.759213 0.069426 -0.489807 0.869732 0.252291 2.561128 -0.726339 -0.870035 -0.481058 -0.597191 0.428623 0.043060 2.041935 -1.275423 0.765921 0.281896 0.689929 -0.911072 -1.391294 -0.590731 1.253650 2.405721 1.604332 0.827994 -1.823069 -0.048120 -2.076890 2.381176 -0.087356 -0.278316 0.610598 1.392015 0.501515 0.747579 2.695255 2.174467 3.740374 0.869545 -0.898571 0.484926 -0.060297 2.641563 3.784906 0.368439 0.959821 -0.937674 -1.977233 1.432580 0.821621 -0.353673 0.289368 -1.450948 -0.217939 -0.306767 -0.550522 -0.267506 0.188427 -1.558961 0.839314 0.202094 0.275565 1.421071 1.588155 -1.210251 0.857191 1.632588 -0.188193 0.474503 0.052715 0.671073 -0.745881 0.044087 1.397655 1.205262 0.619390 0.038304 -0.904676 -2.124221 -1.096308 -0.985123 -1.637412 1.528278 0.101025 -2.242635 -0.214807 1.235760 0.837302 0.919753
分 -3.952552 -1.089923 -0.925409 -0.357870 -1.058058 2.137502 1.024493 0.272210 -0.882663 0.455223 -0.438360 1.964993 -0.447031 0.982244 0.438146 -0.044488 -1.069932 0.078567 -2.234186 0.670746 0.483186 -2.232344 2.102561 0.269288 1.490302 -1.462813 -0.422447 0.559554 0.235365 0.277402 1.850736 -0.827252 -1.716815 0.591449 2.628078 0.636024 -1.292877 -3.337173 -0.652049 0.020941 -1.734689 -1.263663 1.604566 -0.918698 1.191459 0.027594 -0.629515 1.819988 0.591602 1.552523 1.446584 -0.731232 -1.340711 1.087877 0.373841 1.092575 1.133541 0.323388 -1.636196 2.540667 0.096020 -1.725614 0.331883 1.562865 1.979102 0.777980 1.553240 -0.720825 -0.005589 0.092819 -1.926343 -0.494537 0.301574 0.536104 -0.838267 0.532046 1.232026 1.915890 0.075004 0.283957 1.833501 -1.586569 1.360034 -1.445541 -2.578013 1.720732 0.149853 -0.286849 1.439226 -0.210870 -0.302016 0.869130 1.469435 0.861508 -1.354478 -1.320307 1.290798 -0.214509 2.143511 -0.677148
法 0.548332 -0.892053 0.553915 -0.396576 -0.602263 -1.058014 0.186756 -1.064381 1.281031 1.117257 1.569263 2.402881 -1.955193 -0.926793 1.771533 1.883168 -0.721452 -0.392491 -0.586557 -0.429321 -0.938161 -0.855887 0.466710 0.150746 1.034773 -1.801706 0.754633 1.896280 1.593140 0.160417 -3.810539 -0.332414 -0.495105 0.045203 -0.231154 -1.121851 0.530489 1.521243 1.087332 0.655963 -1.135049 -1.445155 -3.019953 -2.955190 0.221618 -3.377360 -0.470807 -1.685892 0.101975 -1.551062 -0.578894 1.315895 -0.777017 0.057834 -1.348293 1.068234 1.030888 -1.454818 -1.104732 -0.603334 0.270151 -1.157371 -0.612182 -0.301379 0.806269 1.492892 0.289250 -0.778192 -3.369964 -0.020931 0.615166 -1.244852 -0.758206 -0.038601 0.071893 0.601442 0.534381 0.497807 0.047836 -1.052948 0.102415 -0.131808 -0.035124 0.923587 0.205383 0.273582 2.388186 -0.135649 -0.578078 -0.229570 1.225780 -0.086196 0.426386 -0.289208 -0.427456 -1.037274 1.420213 1.727923 -0.696596 0.885091
就 -0.180789 0.533414 -0.125174 0.020393 -0.815938 0.287381 -0.396442 -1.072393 -0.487823 -1.202524 0.260350 -0.293702 0.901549 0.387171 0.043154 1.046367 1.272536 -0.764030 -0.007399 0.924626 -0.051852 -0.910216 0.192733 0.201817 -0.089206 1.020523 -0.683011 0.369458 0.821710 0.268455 -0.572812 1.361748 -0.784548 -0.627354 -0.992273 1.926477 -0.541448 -0.458690 0.042093 -0.868695 1.007526 2.432554 0.020914 0.670850 -0.853156 0.108692 -0.612107 0.358992 1.219754 0.683398 -0.828021 0.037939 -0.590313 -0.666223 0.490038 0.143138 -0.122095 -0.209282 -0.348405 -0.813676 -1.183776 0.558065 -0.196689 -0.178605 -0.387524 0.782951 -1.448745 0.194412 -1.211323 -2.220165 -0.433440 0.573767 -0.561538 1.646028 -1.430550 -0.003515 0.075541 -0.459884 0.436142 -1.242193 0.908886 -1.438156 0.213815 -0.328719 -0.768086 -1.359967 0.772845 -0.436052 -1.087221 0.483423 -0.721070 1.123800 0.671352 -0.418830 -0.963466 -0.469703 -0.568915 -0.256178 -0.885396 -0.224569
美 0.501847 0.062041 -0.755553 -0.959875 0.709595 -0.450735 -0.835318 -0.038798 -0.623781 -0.116279 0.541794 1.388899 -2.130270 1.073558 -1.592601 0.565951 0.778730 0.848477 1.590558 -0.506044 -2.286116 0.795920 1.138974 -0.409019 1.524237 -0.596745 0.395740 1.236146 1.614807 -0.618774 -1.401798 -0.842422 0.565172 -1.477498 0.396029 -0.396538 0.193947 -1.156796 -1.455339 2.602298 -0.476037 0.906470 -0.885342 -0.195579 -1.614017 -0.983942 1.580250 -0.234257 -1.219360 -2.288162 -0.137167 0.300905 0.053521 -0.180639 -1.500822 -1.277009 -0.329981 -2.128648 -1.491799 -0.059859 1.088139 -0.397067 -0.862728 -0.927413 0.261533 0.035486 0.036301 0.490448 -0.425782 0.935980 -0.368877 -0.709326 -0.523653 2.382748 1.517879 -0.082554 1.517371 -0.861513 0.289291 -1.557095 0.370749 2.182302 -1.970077 -0.368509 0.150540 0.883581 -1.144397 0.980407 0.396665 -0.186374 -0.110196 0.176865 0.057099 -0.199519 -0.468380 -1.141212 0.521724 0.321036 -0.382908 0.667518
场 0.097091 1.120725 0.617339 0.385536 1.372311 -1.048554 1.636140 0.157170 -0.050013 0.438476 -1.666462 0.506858 -1.035370 0.201675 -0.812538 0.385133 0.179892 1.340426 0.924112 -0.581533 1.575027 0.997645 -0.485411 -0.620974 -2.185326 0.709986 0.230312 1.415266 0.414772 -0.327343 0.055794 1.187331 -2.230161 -0.159325 0.798013 0.485326 2.445745 -0.568892 -2.096190 1.467583 -0.282819 0.399194 -1.602818 -2.276164 0.365848 0.111996 0.611167 0.562692 3.144359 -0.261557 -2.641270 1.961221 -0.224455 1.769560 -3.826061 -2.348849 -0.256513 1.054912 -0.244370 -0.016973 -1.241434 -0.638780 -1.371586 -0.611003 -0.005392 -0.110659 -1.021378 0.723490 0.075696 -0.449083 0.624688 1.398788 -0.573693 1.483450 2.354815 0.410918 -0.567933 0.838301 1.489755 2.354357 2.922011 -2.507428 1.320531 -1.777010 1.106942 -3.068869 0.528484 0.510917 0.246483 -0.088062 0.248878 1.702193 -1.403028 -1.344853 1.218021 -1.372403 1.554335 -1.408708 -0.406373 -1.711100
高 0.243244 -1.213546 -0.460214 -1.588835 -0.007494 -0.272661 0.228290 1.500870 -0.786465 0.040152 0.897624 -1.294600 -1.721092 0.533771 -0.872433 0.667580 -0.235167 0.334829 -1.070628 -1.279550 0.494248 -1.486707 -0.991226 -2.382282 -1.066450 0.457455 0.576389 -0.119773 -1.446920 0.857556 -0.719573 0.610238 -0.437311 0.274461 1.291563 0.241918 0.385806 0.110658 -0.656345 0.897851 0.491467 0.440552 -1.253835 0.990251 0.105985 1.341756 -2.369729 -0.527104 1.022181 0.701990 0.699788 -0.701658 0.697780 -1.603600 -1.133706 -0.049029 -0.437759 1.709868 -3.131186 2.180930 0.607888 -1.071668 -1.320087 0.954738 -0.173890 -1.577697 0.219870 -0.993093 -0.012570 0.505894 -1.124283 0.319010 0.835567 0.103975 -1.240506 -0.091210 -0.255481 -0.682251 -2.182196 -1.723005 -1.129303 -3.428739 -0.981214 1.420964 2.128195 1.621221 -0.397611 1.508617 -0.280372 1.404488 -0.399109 0.234057 -1.321869 -1.829884 -0.191822 -1.158929 -0.620900 0.787052 0.533172 2.009713
后 0.948927 -0.279769 -0.938096 -1.071334 -1.929294 -1.617038 -0.218597 0.447017 -0.993840 0.875905 0.790178 -0.707056 -0.142350 -0.555339 -0.569848 0.633608 -0.959079 -0.496553 0.579147 -0.578279 0.067548 -1.169406 0.840300 -2.064519 0.520445 0.822073 0.890992 -0.921689 -0.954574 -1.057428 0.072829 -0.354372 -1.471299 0.631667 -0.738021 0.522476 -0.385691 -1.171943 0.767644 -1.302105 1.095718 -0.560931 1.655807 -0.339169 1.323826 -0.424700 -0.056779 1.182122 2.055101 0.363069 -0.853771 1.219056 0.845201 0.594737 0.520433 -0.463550 0.342456 -0.534048 -0.494594 -0.480165 2.496733 -0.842791 1.294865 0.793666 -0.152358 0.922734 -0.325921 0.041358 -0.469804 -1.796197 -0.833146 -0.759178 -0.266922 1.301469 1.000807 -0.788013 -0.061460 -1.024229 0.436151 -0.507832 0.325769 0.070407 0.930042 1.831066 -0.129409 0.196420 -0.650332 -0.385443 -0.019942 -0.681226 -0.514802 1.239982 -0.147293 0.534587 -1.058450 -1.102372 1.020516 -0.935973 1.975421 -0.891300
力 -0.413597 -0.465212 -0.648294 2.087401 2.070337 1.951944 0.674986 -1.353987 -1.005375 -0.142395 0.416233 -0.076862 -1.339809 1.706190 -0.155229 -0.320309 -1.439877 -0.150324 -0.590741 -1.160249 -1.420493 1.868160 0.873585 -2.897690 -1.015179 0.742992 -1.642954 1.439550 1.448360 0.659870 0.082878 0.390462 -0.075539 -0.110255 -1.450605 0.050086 -0.068679 0.435385 -1.663674 2.743154 1.411167 1.438791 -0.890540 0.047749 1.062110 0.145504 -1.549339 0.150664 0.762667 -0.858810 -1.890386 1.016322 -3.301803 -0.629911 0.091099 1.047497 -0.328643 -0.631207 -0.253739 0.848674 0.081033 -0.418562 -1.139405 -0.798528 -2.395847 -1.243240 -1.320363 1.196215 3.205507 -1.071501 -0.707505 0.964378 1.975269 -0.722258 -1.298138 -0.761723 1.671454 0.194700 -0.706522 -1.628793 -0.520114 0.340803 -0.470787 -0.841938 1.528543 2.776064 -0.038466 -0.988869 -1.873224 0.535874 -0.317956 0.624300 -0.954522 -0.477116 -3.167597 0.163521 2.465689 0.605195 -0.353822 0.356518
产 0.446213 -1.585517 -0.172825 -0.201599 2.917487 2.904966 2.502733 -0.007902 -0.083176 -1.406732 1.096856 -0.913922 -1.223778 3.354012 -0.505888 0.009836 2.375558 0.257285 0.481396 -1.679011 -1.898687 -0.360340 0.642573 -0.176671 0.954246 1.624209 0.166075 -0.434561 -0.155645 0.354643 1.684507 -0.220290 -1.234166 -1.217515 -1.104129 0.928282 0.989894 -0.120748 -1.442916 1.813250 -1.576211 4.019859 0.889253 -1.099718 1.385740 1.310393 -1.156214 -0.632801 0.023485 0.027454 -0.062073 0.828564 -1.141543 -2.627717 -2.120150 1.957597 -1.364507 0.680719 0.047061 -1.461163 -1.551921 1.380732 -1.814392 -2.815350 2.194033 -0.793353 1.697197 0.025277 -1.147730 -2.760184 0.292571 1.150995 -1.437459 -1.522196 1.538308 1.663441 0.151735 -0.746522 -0.219850 -2.515204 -1.133650 -1.075382 0.664192 -1.581717 -1.497610 -1.517954 1.959068 0.527756 -0.813403 -0.704932 -0.231322 1.557217 0.017682 1.017241 -1.460390 1.111439 0.856291 1.269340 1.065596 1.476171
自 3.042363 -1.701445 -0.285081 1.091353 -0.022709 -0.108527 -1.720266 -0.543130 1.259940 2.441302 0.732842 0.162763 -2.445170 -0.944606 3.394302 1.522147 0.967775 -0.314169 -2.028677 0.058606 -1.467171 -0.605818 -0.276481 0.805327 0.318130 -0.101430 1.973660 1.011495 0.034946 -0.144093 -0.822483 0.174647 0.227721 -1.561653 0.624716 -0.605076 1.109621 -1.767323 0.245421 0.909356 1.816070 -0.286541 -1.315935 0.066091 0.193522 -0.187329 -0.874271 1.298108 2.278468 -0.447055 1.836802 2.065887 -1.711102 1.692765 1.744849 1.321900 -0.252682 1.294050 2.289049 2.676026 0.762817 1.095808 -1.163384 0.602264 -0.918233 -1.350328 -0.300331 -0.992025 -0.560404 -1.541398 -1.142117 -1.498431 -0.239544 0.386744 -0.469299 -0.736756 -3.216911 -0.695261 0.635195 -1.557704 -0.117051 -1.228729 -0.496541 -1.704173 -1.122887 -1.120076 -0.203161 -0.786778 -0.399302 -0.551468 0.270441 0.863727 -0.063680 -0.744936 -1.088160 1.208854 3.151611 1.545579 0.853533 0.194968
关 -1.983711 -0.996484 -1.066421 1.249185 3.197237 -0.145702 0.129942 -1.064290 -0.979102 0.346787 0.583928 2.203935 0.220585 -1.513988 -0.193620 1.408404 0.909309 -0.623856 -0.262421 -1.099804 0.173240 -1.802032 -0.902933 -0.590055 -0.375782 -1.367585 -0.129481 0.685120 1.774078 -1.424881 -1.614170 0.608985 -1.272690 1.663422 0.921978 1.201916 1.606548 2.389868 -1.353562 0.745634 3.786206 -0.664659 2.238340 -2.700373 -2.099446 -1.367063 -1.163933 -1.510793 -1.211036 -3.298121 -1.534694 1.003247 -0.592419 1.465789 0.491066 1.837631 -2.546805 0.848866 -0.202523 1.086165 -1.461397 0.857839 1.164666 1.276061 0.947596 -1.217001 0.946678 -1.457562 0.658966 -1.189383 0.645736 1.579534 0.681779 2.654674 0.843879 0.039999 3.258725 -0.627570 -2.252395 0.832866 0.914324 2.361981 -0.211675 0.112563 -1.629452 1.909068 2.976070 0.031237 0.224721 1.562756 -1.436329 0.280925 -0.390430 -0.322597 -0.626764 0.363070 1.038894 0.555535 -0.521509 -2.293833
说 1.854241 1.753801 -0.577341 0.321086 -1.209533 -0.548328 -0.673697 -0.410524 -0.758243 -0.160203 -0.207057 -0.352665 1.997820 -0.313903 -0.134670 1.389527 -0.108748 -1.211087 -0.748755 0.980970 0.373915 -0.221409 -1.049127 1.012123 0.803142 -0.435398 0.248686 1.189733 0.557982 0.199540 -0.089638 0.494903 1.255200 1.163729 -0.294535 1.677477 -0.562929 -1.374984 0.506950 0.207713 -0.214653 -0.281853 1.131511 1.312453 -1.677755 0.158789 1.257844 1.050586 -0.973176 -0.101434 -0.353450 -1.278584 0.450663 0.911960 -0.428102 0.248037 -1.979761 -1.575132 -0.613838 0.686857 2.159178 1.335241 -0.657804 -0.694515 0.020180 -1.266347 -2.087449 -0.382294 -1.947880 -0.802858 0.679764 -1.440480 -0.112255 -1.022562 0.620207 0.274486 -0.348561 -0.544982 -1.374969 -1.208567 -1.140681 0.479900 1.767553 -1.762096 -0.658849 0.025260 -0.178091 1.438979 0.776218 0.142548 -0.967755 0.046046 0.902371 -0.798774 -1.573027 0.402970 -1.402625 -0.483646 0.783515 -2.000880
能 -1.079695 1.192893 -0.070671 0.624527 -0.384818 2.607742 1.757844 0.469018 -0.715234 0.482547 -1.264755 0.778085 2.532896 0.757199 -0.629508 0.653402 -1.238761 -0.025872 -2.683891 -1.343445 -1.051457 1.346218 1.239204 -1.881089 -0.075768 0.784898 1.981079 1.039605 0.817977 0.274538 -1.193038 -0.439710 -1.102608 -0.635892 0.949904 1.918522 -0.096543 0.212775 0.973028 -1.028872 1.796068 1.249555 -0.405571 -2.159425 1.662695 1.661913 -0.351108 -0.120334 0.780833 -0.098588 1.135608 -0.322346 -0.340520 0.703967 -1.409198 0.878567 1.284588 0.587323 -2.013402 0.745630 -0.477369 -1.174721 0.345295 0.525170 0.046474 0.712442 -1.476293 0.809632 0.117331 0.621695 0.117557 1.056566 -0.461476 1.105445 -1.486069 -0.095111 -0.232326 -1.793691 0.152734 -0.609569 -2.319671 -0.910249 0.515775 -1.480307 1.364973 -1.786295 0.625529 0.415563 1.878484 0.264037 0.889914 -0.080841 -0.135246 1.593498 -0.783816 -0.091773 0.453619 2.040552 -0.085291 0.185266
与 -0.389288 -0.353510 0.233100 1.482711 1.617908 -1.499928 -0.307607 0.082134 -0.897731 0.007950 0.222263 0.582003 0.119447 -0.696322 -0.577771 -0.880996 -1.449792 0.089020 -0.381748 -0.219377 -0.143064 -1.448814 0.199442 -0.135600 0.572526 -0.428737 0.113078 -1.531039 -0.133286 0.789508 0.109283 -1.046573 -0.820994 0.099969 -0.461232 -0.608800 -0.157314 -0.196638 0.482855 0.491588 1.479941 1.406215 0.304725 0.022437 0.134474 0.117367 -0.172633 -0.211614 -0.060260 -0.961495 -1.207154 0.606489 0.115102 0.318618 0.058212 0.252741 -0.494865 -1.657193 -0.050824 0.407936 -0.415250 -0.540788 -2.103407 -0.665307 0.000192 0.931139 -0.214479 -0.365218 -0.625852 0.789831 -0.255611 -1.624402 0.273829 0.034228 0.226363 0.412760 0.397266 -0.657390 0.147963 0.278996 -1.384125 0.712269 0.811024 0.283040 -0.024789 -1.205604 0.773306 0.355711 -0.431525 -0.121940 -0.126895 -0.529245 -0.161748 -0.481121 -0.257955 -0.820039 0.754107 -0.226787 0.387431 -0.131255
重 -1.782854 1.466879 -1.596689 -0.076197 -0.303954 1.221857 -1.166845 -0.572422 -2.285003 -0.824824 1.158052 0.825449 0.189750 -1.391963 -0.428221 1.281689 -0.922562 -1.652152 -1.066761 -1.036592 0.059282 -0.384395 0.553837 1.371765 -0.982341 -0.922151 -0.450185 1.887612 0.226385 -0.098630 1.087905 1.166855 -1.788247 -1.895684 -1.447808 0.326587 1.870875 -1.566658 -0.573917 0.255525 1.708041 1.011756 -1.723069 0.040390 -1.320933 -0.022480 -1.195238 -0.936224 0.724979 0.555552 0.384584 0.945121 0.663108 0.037085 -2.081904 1.518459 -1.686865 -0.365592 -1.281121 1.162541 -2.238300 1.028648 -0.085568 -0.215234 -0.316866 -2.049503 4.014078 -0.122614 -0.404263 -0.113513 -1.085899 0.521890 0.434600 -0.809961 -1.247051 1.517783 -0.749851 0.411907 0.028557 1.555307 1.272173 -0.873453 -0.488976 1.548426 -0.552039 2.549897 2.256403 0.369851 -1.156695 1.097549 -1.841451 0.400933 0.832776 -0.753519 0.704309 -0.629654 0.028201 0.536463 1.733772 0.913638
月 1.479491 0.813722 -3.060436 -0.262483 -2.542450 -0.181596 1.633632 -0.561461 -0.045125 0.791128 0.026350 -1.187254 1.590546 2.220456 0.137377 2.305617 1.711669 1.967888 0.641909 -0.227067 -0.706959 1.552210 0.915361 -1.460281 1.772956 1.669632 1.267893 -1.363989 -1.871159 0.366670 -0.806552 -1.096542 -0.204269 1.798450 0.261949 -1.412709 0.683963 -2.182311 -0.525799 1.199457 0.395375 1.586514 -0.409735 -2.352040 -2.623101 -1.254243 -0.012739 1.500580 -0.485724 -0.732867 -2.192561 -2.243168 -0.090120 0.725074 0.631600 -1.871565 0.889231 0.731727 -1.646129 3.102086 1.645736 1.174003 1.595778 -0.485624 0.303306 -1.244959 2.337676 0.117880 0.829914 1.679916 1.456630 1.320573 -1.381669 -1.044912 1.131728 -0.742420 0.787814 -1.102859 -2.063927 -1.084072 0.149591 1.134292 0.402396 -1.806112 0.816755 1.014204 -2.273908 -1.349250 -1.102835 -0.491199 -0.728326 0.309216 -2.063655 2.162380 -0.382167 2.272653 -0.226926 -2.131024 1.476575 -0.134748
前 2.449170 0.104197 -0.283882 0.737908 -1.226978 0.968214 -0.385832 0.061156 1.879195 0.519689 -0.672879 0.036000 -0.201784 -0.407427 -0.787202 1.754392 3.520127 -0.342111 -0.472722 0.061821 -1.235094 -1.524528 -0.543791 0.062116 0.857009 1.428716 0.737532 -0.481032 -2.311563 -1.277066 -1.480042 -0.957854 1.229413 0.209455 -0.274415 0.937470 -0.908323 -0.132214 0.612382 1.287800 2.295896 1.833274 -0.951588 0.018648 -1.741911 1.601684 -1.673484 0.999750 0.250841 0.034313 -0.496260 -0.064110 0.660416 -0.297658 1.051339 -1.166708 0.227618 0.119651 -1.999948 0.134451 1.570315 -1.986953 -1.221351 -0.316220 -0.448822 0.595424 0.765940 0.425159 0.347377 0.266371 0.520879 1.297924 -1.572100 1.480922 0.576009 0.723795 -0.129062 0.189304 -0.562880 0.581148 -0.001857 -0.656112 0.306352 0.962386 0.977226 1.096458 -0.367911 0.456762 1.167550 0.430248 -0.635751 1.083729 -0.198132 0.411892 0.655025 -1.805320 -1.253306 -1.212935 -0.994327 -0.340271
者 -0.509541 0.621036 -0.419441 -1.074776 -0.565773 -0.091225 1.975726 0.900365 1.351637 -1.238749 -0.142982 0.868988 0.729893 -0.444540 -0.783887 0.439557 -1.622822 0.508997 0.278411 -1.603568 -0.571000 0.501219 -0.685578 -0.967660 -1.312025 -2.047624 1.166539 -0.522264 -1.750639 -0.932977 -0.702171 -1.214381 0.669190 -1.147782 0.245246 -0.090699 -0.536794 -0.941688 -0.069162 -0.090055 2.371626 0.882805 0.704578 -2.372180 -3.083905 -0.778427 0.299285 2.141117 -2.182008 1.201439 0.372054 -0.838475 -2.113110 0.836464 1.164616 0.223956 -0.678912 -3.270591 1.326548 -0.380618 -1.849506 0.790719 2.741771 0.649804 -1.314397 -0.423127 -2.171836 -1.282974 0.089388 -2.197862 -0.510669 0.141596 -1.862592 0.111567 0.013274 -0.939905 1.000851 -0.589394 2.037729 -0.141706 0.855377 -0.144218 -0.557619 0.255762 -0.236412 -0.549971 -2.469025 -1.248513 0.033141 1.155566 -0.034863 -0.157860 0.652885 -1.419188 -1.622715 0.602649 -2.282132 0.145813 0.513741 1.148508
用 0.089342 -0.371979 -0.243440 -0.769707 1.233473 -0.486626 -0.046472 -0.273230 2.325144 1.007155 1.273464 -0.812576 0.843833 -0.232293 -0.773797 -0.692198 -0.052833 -0.189658 -1.197549 -3.265635 1.521393 1.408905 -0.136076 0.673837 -1.061283 0.150763 -0.632199 0.334083 2.525792 0.618068 0.149218 -1.445720 -0.926861 0.650529 -0.361242 0.552612 2.032682 -0.060375 -1.229458 1.551369 -0.320651 0.328724 -1.176300 -0.384835 0.461252 -0.011690 0.475840 0.701961 -1.071124 0.626754 0.315830 0.053305 -0.636617 0.838216 1.053339 1.264391 -2.064398 -1.100849 1.057464 0.355254 -0.373397 -1.282017 -0.730810 0.557596 0.831595 -0.370882 -0.922372 0.756241 1.573438 0.493481 -1.563985 1.981127 -1.566710 1.575191 -2.562031 2.004400 0.515674 -1.209241 0.232481 -2.539947 -0.202850 -0.044731 0.460265 -1.675845 -0.419452 0.877994 0.329237 -1.291893 1.100844 0.256821 -0.393158 0.675172 -0.038614 0.394872 -1.029255 2.147888 -1.204751 1.137275 -0.035627 0.967806
加 -0.644484 0.203544 -0.741244 0.184176 0.874071 -1.641563 0.290900 0.810061 -2.150739 -1.745436 0.099454 -0.662986 -1.896015 -2.195594 -1.635136 1.247387 -2.791974 2.235079 -0.385646 -0.221883 0.520786 -1.704356 2.296491 -0.817329 1.880324 -0.005861 1.299329 -2.895502 -1.183747 1.046598 -0.611508 -1.464432 -1.727970 -0.157286 -1.248418 -1.342425 -0.263162 0.304395 -1.668283 -1.390114 -0.391323 1.643296 -0.061205 1.083733 -1.044208 -0.423729 0.735076 -0.077701 0.737155 -2.471229 -2.321837 0.062567 -1.577545 1.077284 0.744890 0.388840 -1.889959 0.615542 -1.200505 1.777131 -2.271884 1.434981 -2.436174 -0.877499 -0.944978 -0.818390 -2.768285 1.280586 -1.125977 -0.055926 -1.407877 0.066129 1.187695 -0.950721 0.477520 0.295250 -0.226188 -0.670340 0.673627 -1.384104 -1.030409 -1.293265 -0.618278 -0.950569 0.133621 0.891134 0.098321 0.929962 -1.097387 -0.528964 0.556805 0.141493 0.755280 0.781969 0.083367 -2.399129 1.584124 0.552844 1.094658 -0.303380
建 -1.562573 -0.869983 0.393113 -2.387754 0.602930 -1.682327 0.112744 0.996646 -0.814016 0.593798 -2.549907 -1.735348 -0.322219 3.769317 0.212727 0.686793 0.234264 0.264582 -1.514419 -2.367034 -1.331620 -0.676634 -0.382020 1.423337 0.752791 1.333181 -0.038799 -0.434299 1.357594 -0.046409 -2.614834 0.007567 0.183635 0.163175 2.182989 1.355283 1.137381 1.586954 -2.330454 -1.665117 2.082149 -0.685388 0.961888 -0.566823 -0.286457 -0.892072 -2.541776 -0.330441 1.584012 -0.147018 0.581737 2.222905 -1.463737 -0.863413 -0.816358 -0.551833 0.842604 -0.324558 -0.251798 0.353289 -1.052192 2.960988 -1.949846 -0.512370 -0.922037 -1.146293 -0.542497 -3.493653 -2.461929 0.616899 -1.321689 0.600513 -0.602306 -1.498490 0.174595 3.096666 -0.625171 -0.396357 1.150133 -0.603955 2.297574 1.200702 0.802555 -0.889186 2.233924 -0.272946 1.205567 -2.242126 0.515586 1.133964 2.068556 -1.939031 1.054945 0.499313 -0.095159 -0.658075 0.790585 -3.014405 1.203524 0.511957
济 -0.598682 -1.643748 1.328519 0.960139 0.702442 1.474399 -1.682324 0.827002 -1.557089 -2.414599 0.550517 -1.468167 -2.300264 1.899489 0.947544 -1.972786 0.039004 -0.177382 -1.154878 -0.191137 1.569354 0.411659 0.275732 -0.661632 0.100930 0.322074 1.100067 -0.396169 -1.498856 -0.641574 -2.947798 -0.554637 -1.560196 -2.490884 -1.471231 2.353443 0.496239 -1.257768 0.008355 0.712162 2.233604 0.904641 -2.896201 -2.538622 -0.796720 -1.223098 0.843758 -3.797736 -1.698451 -0.698468 -2.025151 1.463675 -1.341376 1.066029 1.070519 2.100522 1.486234 -1.213315 -2.243842 -0.707151 -2.456122 1.832604 -0.986722 1.385585 0.196190 0.436321 0.622667 -1.154814 -0.588839 -1.525354 0.082920 2.004997 -1.961012 0.962851 1.101649 0.476349 -0.430882 -0.341867 2.182850 1.433234 -1.632686 3.328240 1.106171 -1.804066 1.080091 1.346866 -0.394997 2.944566 0.004572 -2.487180 1.210577 -1.046934 -1.016929 -1.468098 -0.881307 -0.529137 -0.728511 2.363070 -0.725037 -2.525039
员 -0.993517 -0.140547 -0.020861 -0.916214 -0.311654 1.365138 -0.375393 1.019710 0.609881 -1.239071 -0.421851 1.526605 1.387897 0.075955 -0.468252 0.305683 0.268715 2.161337 -1.011175 1.810740 -1.898270 -1.651362 0.262374 -1.192875 0.592873 -0.722221 0.386433 -1.272044 -0.309390 -0.381084 -2.583433 -0.821734 -0.105637 -0.039152 0.437823 0.130874 -0.543345 -0.336216 -1.795565 -0.542476 0.894287 -0.883068 0.021510 1.710016 0.014023 -1.600946 -2.599375 0.850026 0.578738 -0.601936 -2.382967 0.481388 0.666731 0.755044 -0.152988 1.550153 0.107070 -0.974146 0.960207 0.401162 -0.494964 -1.706306 -2.405851 -0.325426 -0.677037 1.389217 -1.278005 0.024742 0.008714 -2.220825 -0.611354 -1.605779 -0.039656 -0.506173 -0.254502 1.677840 0.953773 -1.511550 -0.849148 0.444277 0.358135 1.849035 -1.034186 0.074662 0.716615 -1.405946 -0.028733 -0.345449 0.916570 -0.569962 0.515247 -2.037865 0.699937 -1.792323 -1.176536 1.647780 0.694819 -1.016558 -0.397794 2.156156
合 -0.289513 -1.467287 -1.984196 -0.440214 1.157644 -0.720696 0.057044 1.466193 0.755273 1.961770 2.575175 2.719282 0.362486 0.544686 -0.049868 -1.689715 0.533169 1.284860 -2.061381 -3.732653 0.355219 -0.803036 -0.643651 2.157149 -1.773679 -1.749185 -0.643397 -0.265778 2.461349 0.163851 -0.526245 -2.127847 -0.830557 1.382745 1.106502 0.685919 1.850317 -1.526784 -1.724860 0.678897 0.749994 2.875871 -0.680719 0.847607 -2.642046 -1.944504 -0.567440 1.974961 -1.441691 -1.549319 -0.056792 0.625567 -2.447965 -0.277345 1.873461 1.482573 -0.720459 -1.532709 2.408129 -0.065736 1.034379 -1.479795 -1.842209 -0.061032 -0.323039 1.253915 0.111669 2.568229 -1.400735 0.070097 -0.902446 1.981990 -3.013695 1.981341 0.139048 2.128292 0.509690 1.501220 -0.500904 1.708494 -1.947983 2.564646 -0.944459 -2.453885 0.058886 0.484406 0.410005 -1.026723 -0.575717 0.119682 -2.235260 -0.920372 -0.009196 0.441168 -2.051605 0.405062 -0.560965 1.106103 0.501903 0.835027
报 1.644426 -0.653931 -1.387837 -1.820885 -2.412457 0.226778 0.494249 -1.643274 0.200263 -0.886525 -0.496499 -1.572808 1.952972 0.729956 2.612595 1.890882 -2.034612 -0.131216 1.747823 2.105603 -1.182705 -0.039164 -0.908134 0.962258 -0.802610 -1.086802 0.914603 -0.450250 -0.297373 0.893950 -1.385419 -1.034363 0.558916 0.604596 -0.373202 -0.713875 0.692288 0.608219 0.029045 1.378160 -1.176370 0.142458 0.633319 -0.609547 -2.500740 -1.307580 -0.569180 0.794698 -2.691406 0.847227 -0.179085 -1.854443 -1.135684 0.554025 -1.116268 0.372466 -0.691930 -0.566195 -2.456388 0.471692 0.419033 0.862346 -1.637978 -0.048043 -1.488058 -1.017774 0.520352 -1.761888 0.384243 0.120023 0.562335 -1.745578 -2.230186 -0.457498 -0.330897 -1.819895 -1.915266 0.847926 -2.026004 0.256190 -1.920328 1.806259 -1.934375 -0.728571 1.103715 -2.026177 -1.234801 -0.025880 -0.459120 -1.525504 -0.665498 -0.202539 -0.875883 3.018690 0.038713 -0.620535 -2.771259 -1.000392 0.286078 0.898337
小 0.069080 0.432014 0.602339 -0.424571 -0.494867 -0.598348 1.134084 0.049977 0.344018 1.833211 -0.868507 1.159549 -0.419582 1.275470 0.647831 -1.330451 -0.552232 1.118878 -0.486098 1.463068 -0.498887 1.365072 0.099043 0.736232 -0.668821 1.865762 -0.755754 -0.952584 -0.496284 -0.450522 0.019747 -0.838209 -0.337146 -0.277470 0.613216 1.339463 -1.737227 -0.540443 0.522008 -0.461752 -0.192873 -0.662455 0.580355 -0.336774 -1.857767 2.121515 -0.096579 -0.556303 0.693148 0.962655 0.330743 -0.692427 -2.336790 -0.419986 -0.098492 2.197793 0.932699 1.471521 -0.310746 1.173469 0.044393 1.042466 1.034628 -0.239375 -0.585192 -0.854666 -0.198533 -0.741364 -0.092031 0.545330 -1.572504 -0.046138 -0.549812 -0.353310 1.018281 0.680475 1.274973 1.098087 0.083443 0.336203 -1.257861 0.017769 0.649270 0.594029 0.387877 1.044452 1.043216 -0.984091 -0.788140 1.776178 -0.989206 -2.240540 1.527776 -1.000552 0.244450 0.059730 -1.952284 0.276546 -0.116646 0.435331
天 1.068439 0.796787 -1.073825 -1.915682 -1.578871 -1.317571 -0.508946 1.259269 -1.397236 -2.025112 -0.100093 2.385563 0.452161 0.394130 1.313122 -1.852973 -1.724760 1.673795 1.027466 0.881480 0.949159 -1.248088 -0.463857 0.332329 0.652520 0.465107 0.753305 -0.666498 -0.399016 1.382742 0.021561 -0.553772 1.068855 -0.437874 0.164662 0.478407 1.509167 -0.330293 0.627126 0.037959 0.773654 0.420267 0.946801 0.000776 0.116968 1.278794 1.893790 0.854959 1.930997 0.603582 -0.440128 -1.439341 0.076333 0.174511 -0.655972 -1.973985 1.438766 0.405567 -1.677096 0.051010 1.850554 1.336250 2.820141 -0.121114 -0.378208 -1.199458 0.181112 3.398732 1.207614 -0.687196 1.658080 -1.211196 -0.645370 2.241498 1.489684 0.452097 1.306432 -2.211600 -0.776354 -0.938154 0.524447 0.383534 0.859189 -1.130223 -0.653458 -1.008663 -0.900389 -1.172373 0.374618 -1.471068 1.107014 2.230593 -1.864671 1.506483 -0.803129 0.720310 0.433681 -0.837294 -0.729623 -2.425109
化 1.961641 -0.082140 -0.133843 -0.171388 2.035169 0.368132 0.267425 -0.030469 -1.947127 -0.631943 -2.337137 1.544419 -3.607596 1.076590 -0.788291 -1.216621 -0.151481 0.488346 -0.366498 -0.114269 1.874536 -0.002809 1.009665 -2.159849 -2.020510 0.553666 0.410566 0.113686 0.130590 2.027670 1.398861 -1.519148 -1.545746 -0.900450 0.181425 0.480762 0.993835 2.139663 -0.437761 1.791515 1.002345 0.984984 -1.546921 0.819726 2.083028 -0.371169 -0.394722 0.033635 -1.030748 -2.086838 -1.624881 1.269825 -0.214268 0.278381 -0.707002 -1.006822 -0.204727 0.696875 0.185628 0.122841 -2.309508 0.514093 0.389632 1.234278 1.063260 -0.131108 -0.216988 -0.187608 -0.964092 -1.425947 0.685076 -1.505121 1.030905 2.140836 -2.299493 0.974715 -1.335769 2.272320 -0.377279 -0.813610 0.024390 1.608474 1.018021 -0.508957 0.062663 -0.221999 1.910371 -0.979400 0.856536 0.623717 0.890373 -0.892076 1.275242 1.519221 -0.800752 -0.655651 -1.132419 0.366746 -0.789041 -0.202043
过 0.097931 1.178716 0.679774 0.446850 -2.711162 0.831171 0.107504 -0.280578 -0.765323 0.459840 -0.420415 -1.641131 -0.087229 1.149841 1.012144 0.530927 0.395337 -0.739353 -1.521534 -1.748600 1.368207 1.216572 0.972898 -0.413213 1.164289 0.733563 -1.568251 0.469156 -0.266289 -1.375520 -1.488978 -0.245430 -2.394220 0.039186 -0.494730 1.392473 -2.786101 0.085515 0.055268 0.174578 1.781549 -0.686281 -0.873143 0.963776 -0.044180 1.028217 -1.340541 -0.905220 -1.861473 -0.939372 -1.518201 -0.287929 -0.656098 0.573234 -0.304957 0.928091 0.374275 0.377718 -0.243136 -2.325969 -0.570336 0.613318 -0.486350 0.759876 -0.571332 1.175201 1.318882 1.297309 0.290287 -0.523955 1.779443 0.696968 -3.014659 0.650173 0.840096 -0.086093 -2.021974 -1.065175 1.099005 -0.960847 -0.486973 0.268485 1.788668 -1.261931 -0.404108 0.736016 -0.521544 0.981829 0.148101 -2.642747 -0.111428 0.266235 -1.516757 -1.622112 -0.849140 1.242485 -2.633996 1.664570 -0.480912 -1.339484
也 -1.273260 1.828216 0.282823 -0.206848 0.206596 0.103000 -0.984614 -1.301870 -0.883947 0.007996 1.175479 0.329480 0.429974 -0.197941 0.504553 0.543517 0.593741 0.139896 -0.487773 -0.493175 -0.081239 -0.170307 -0.187959 -0.168293 -0.254894 -0.207160 -0.666953 0.151602 0.521708 -0.031373 -0.120506 -0.284424 0.092656 -0.670913 -0.590146 0.190608 -0.503792 -0.630575 0.616897 0.212364 0.859934 0.434371 0.229946 -1.054511 -0.403384 1.225800 -0.000284 0.659452 0.634775 -0.727679 -1.294608 0.062069 -0.451033 -0.283373 -0.185870 0.366458 -0.521135 -0.209705 -0.385629 -0.829239 -0.616436 -0.248168 0.121857 0.901259 -0.207649 0.433013 -1.763588 0.602550 -0.587607 -1.321881 0.018473 0.399414 -0.306521 1.014673 -1.101245 -0.285192 0.237272 -0.237299 0.150741 -0.689874 0.621719 -0.215076 0.128387 -0.093586 -0.447150 -1.338465 0.973644 0.001302 -0.308195 -0.181913 -0.714235 0.739274 1.220655 -0.413001 -0.471261 -0.442164 0.009174 0.737752 -0.317199 -1.182662
等 0.043113 0.465381 0.303539 -0.204137 1.144010 -0.808369 0.823696 0.289127 -0.421579 0.659875 0.413471 -0.515232 0.158378 0.295006 -0.493801 0.139226 -0.638836 0.229584 -0.746319 -0.488318 0.308352 -0.951638 -0.442754 -0.200798 -0.309744 0.016757 -0.967613 -0.055120 -0.619887 0.989512 -0.011408 -1.655118 -0.963079 0.488993 1.514736 0.203768 0.561120 0.668134 -0.493623 0.595493 -1.048007 -0.791617 -0.522693 0.203838 -0.086405 -0.236212 -0.408813 -0.337723 -1.781443 -0.352648 -0.296830 0.034156 -0.003907 -0.469723 -0.075123 0.674990 0.658898 0.419111 0.446110 -0.059924 -0.383986 -1.018170 -0.275058 0.195768 0.720948 0.263301 0.965591 -1.145532 -0.013684 -0.491682 -0.647963 -0.761124 0.073944 -0.411020 -0.684201 0.576589 0.816851 -0.323780 0.028903 0.484046 -0.437481 1.559776 -0.958584 0.732580 -0.437352 -1.729392 0.331789 0.631554 -0.828213 1.111023 0.607976 -0.716188 -0.502386 0.280008 0.515116 -0.122200 -0.656333 0.390784 0.119544 1.924740
而 0.211013 0.925426 1.087144 0.156824 0.160932 1.179048 -1.273636 -0.741091 -1.138133 0.201553 0.838227 0.595747 -1.181874 1.095973 0.399220 0.833901 0.154656 -0.266152 0.276616 -0.628060 -0.699417 -0.664019 1.385297 0.319464 -0.121028 -0.187136 1.104477 1.216739 0.892052 0.307958 -0.182069 -0.503368 -0.010662 -0.820958 -0.633882 0.589292 -0.517617 0.321760 0.542491 -0.726753 0.890577 2.128527 -0.939036 -1.286871 1.042466 1.481946 -0.021653 0.407443 -0.071500 0.785338 -1.116967 -0.313840 -0.651221 0.270873 0.009643 0.097436 -0.372517 0.206284 1.421787 0.529238 0.498759 -0.802389 -0.628443 1.951111 -0.640153 -0.336182 -0.808590 -0.656528 0.975540 -1.306792 -0.712869 -0.461307 -0.415244 0.920833 0.017661 0.074830 -1.651218 -1.344647 -0.338701 -2.126814 0.637614 -0.691972 -0.056707 -0.028117 -1.264278 -0.584639 -0.458333 0.452414 -0.273710 -0.742512 0.218290 0.589286 0.872141 -0.089504 -1.497423 -0.207705 0.748339 -0.189471 -1.096015 -1.192510
得 -2.711024 1.820185 1.371721 1.454103 -0.944670 -0.463357 -0.344895 0.005795 1.364149 0.323655 -0.446087 1.331764 -0.665205 0.624534 0.043082 0.810102 0.032233 -0.527644 -0.688801 -1.901703 -2.620335 -0.036377 0.787109 -1.480602 1.412770 1.339568 0.225768 0.032349 1.552255 -0.216086 -1.967898 -1.360157 -1.039896 -0.070122 -0.474973 -1.021001 -2.005455 -1.588424 -0.653656 -1.061534 -0.570161 0.100720 1.102653 -0.302236 0.151507 0.006986 0.002355 0.627829 0.437065 0.668768 0.953859 0.020908 -0.238715 -1.519882 -1.502596 0.434096 -0.919865 0.342129 -1.130637 0.477878 -0.511656 -0.481208 0.849188 0.387634 1.435965 -1.276545 -1.924717 -0.999258 0.473215 -0.685021 -0.509067 1.643313 0.547728 2.627832 -0.978708 0.299038 0.382371 0.031932 0.533299 0.499281 -0.178716 -1.810723 0.596970 1.304514 1.457299 -0.982683 -0.256913 0.352929 -1.268750 -1.218864 0.007163 0.144586 0.497054 1.668375 -0.935255 0.190203 0.313005 2.468374 -2.194609 -0.374675
面 -2.353174 1.335067 -1.417548 1.009299 1.625471 1.207826 0.456294 -0.337662 0.377317 -1.392397 -1.316817 0.621405 -1.455616 0.145806 2.445019 0.016994 -1.710386 -2.137362 -0.815911 -0.025969 0.896442 -2.197687 -0.633114 -1.081134 0.125332 1.319075 -1.663314 -0.280930 -0.591438 -0.325852 -0.578605 -0.285726 -0.993219 0.169169 -0.119957 1.271193 0.304750 1.507510 0.698144 -0.006150 -0.435515 1.170530 -1.874905 -0.143768 0.456794 -0.669563 0.713056 0.682685 0.055017 0.461307 -1.045327 -0.668417 -1.848402 0.223031 -1.392590 0.707456 -0.857143 0.020827 0.490771 -0.432937 0.938539 -1.475307 2.810594 0.009659 1.407591 -0.548609 0.288172 0.913455 -2.754516 -0.632117 -2.170750 -1.129237 -0.773108 -0.260140 -0.585527 1.082538 -0.476296 0.872053 -0.674584 -1.469404 -0.657671 0.242603 -0.683913 1.303649 0.431470 0.641155 -0.190177 -0.898975 2.342877 -0.366983 -0.749798 0.491178 -1.707221 -1.836456 1.897038 0.102674 1.002362 -0.586374 -1.559806 -0.970000
之 -0.130297 0.061511 1.171671 0.833489 0.557402 -0.311013 -1.167831 -0.835262 0.731839 -0.573986 -0.562827 0.238378 0.309593 -0.140811 -1.334659 0.304311 -0.600450 -2.159293 0.298126 0.013979 -0.295202 0.136439 0.780574 0.864513 0.556618 0.130951 -0.405282 -0.342148 1.457568 0.159890 0.954561 0.063769 -1.405239 0.798349 0.642140 0.271747 -0.554105 0.546256 -0.193067 -0.124091 1.354745 2.344116 1.322040 -0.789732 -0.125776 -0.026916 0.254011 0.137295 0.809561 0.213560 1.724028 -1.074543 0.646251 0.677205 -1.034183 -0.611426 0.293100 -0.696630 -0.103069 0.281339 0.961717 -0.913882 0.488129 -0.868404 1.230127 0.293487 0.722858 -0.378313 1.523118 0.279682 0.514507 -0.462081 -0.493682 -1.058013 0.120336 -0.613093 -1.293708 -0.140949 -0.605575 0.536326 1.358951 1.391374 0.040654 0.196183 0.136850 0.625964 1.109643 -0.437862 -0.049271 0.843089 1.527555 -0.414898 0.268259 -0.682155 -0.761391 0.405775 0.256235 0.570889 -2.138054 -0.366993
